{"version":1,"worlds":[{"id":"blackwhite","label":"Black and White","config":{"cppn_activation":"sin","cppn_sin_w0":1.0,"cppn_coord_use_fourier_xy":false,"cppn_coord_use_radial":false,"cppn_coord_fourier_bands":[1,2],"cppn_coord_radial_powers":[1,2],"image_channels":1,"param_seed_dim":16},"layers":[{"in":8,"out":64,"weight":[-0.2476882040500641,0.07961712032556534,0.04349255934357643,0.05954660847783089,-0.048747990280389786,-0.01775946468114853,0.06414519250392914,-0.00792299211025238,0.04329606518149376,-0.14900167286396027,-0.012608344666659832,0.1006682738661766,0.020649075508117676,-0.03818077966570854,-0.017182212322950363,0.0950252115726471,-0.018547767773270607,0.09789221733808517,0.002903912914916873,-0.03368489071726799,-0.11148673295974731,0.013060350902378559,-0.06505845487117767,-0.08170361071825027,0.07526882737874985,0.07406802475452423,0.03255046531558037,-0.07314471155405045,-0.019836025312542915,0.025085609406232834,-0.025819523259997368,-0.006542151793837547,0.17214302718639374,-0.08875446021556854,0.06974099576473236,0.0723210945725441,-0.05090830475091934,-0.07197767496109009,-0.0470748245716095,0.0591631717979908,0.03883814811706543,0.08178015798330307,-0.06324569135904312,0.1116565391421318,0.07357790321111679,-0.009778057225048542,-0.04257849231362343,0.017517920583486557,-0.19992570579051971,-0.07095470279455185,-0.002840267727151513,0.049442607909440994,0.0698346197605133,-0.021129122003912926,0.07752462476491928,0.009953176602721214,0.2515362501144409,-0.10142727196216583,0.06711351126432419,-0.0014398845378309488,0.010280699469149113,-0.007389471400529146,0.0644105076789856,-0.039869777858257294,-0.05485562980175018,0.009040900506079197,-0.059475962072610855,-0.13608770072460175,-0.08340563625097275,0.04177425429224968,-0.05681580305099487,-0.045955803245306015,-0.003909674007445574,0.018116481602191925,0.049058251082897186,0.04752455651760101,0.06293491274118423,-0.0015704726101830602,0.12835057079792023,0.044775206595659256,-0.10471957921981812,0.09970905631780624,-0.010301105678081512,-0.05542533099651337,0.011360415257513523,0.0250389501452446,-0.01000034250319004,0.013699507340788841,0.15684321522712708,0.14546211063861847,-0.05547703802585602,-0.08068106323480606,0.036909040063619614,-0.013807700015604496,0.05129990354180336,0.04467340186238289,-0.019581764936447144,-0.13881556689739227,0.08344161510467529,0.07213541120290756,0.02008654549717903,-0.04764571413397789,0.10315754264593124,0.027041437104344368,0.02903120592236519,0.057588279247283936,0.022232938557863235,0.02423194609582424,0.006750279106199741,0.005761203821748495,0.031054623425006866,0.0660085454583168,-0.12339895963668823,0.11886537075042725,-0.06260453909635544,0.12026730179786682,-0.04823741689324379,-0.005847141612321138,0.12256620824337006,0.01626485027372837,-0.150364950299263,-0.09935016185045242,-0.0005892676999792457,-0.06957144290208817,-0.07426046580076218,0.011877517215907574,-0.07312982529401779,-0.021194545552134514,-0.07600009441375732,-0.12792031466960907,0.008655784651637077,0.06286682188510895,0.09362310916185379,0.05258210003376007,0.08788192272186279,-0.08432559669017792,-0.06268739700317383,-0.10199372470378876,-0.04903633892536163,0.11234833300113678,-0.027873724699020386,0.0012950905365869403,0.11369888484477997,0.05336732789874077,0.12567874789237976,0.04584725573658943,-0.017821168527007103,0.10625069588422775,0.09367948770523071,0.06163603812456131,0.014895006082952023,0.04800654947757721,0.1338108628988266,0.01415824331343174,-0.04643564671278,-0.004887822084128857,0.07200868427753448,0.05365324765443802,-0.007143396884202957,-0.023267924785614014,0.03265145421028137,-0.07851158082485199,0.08048462122678757,-0.002263197908177972,0.050914447754621506,-0.03149283304810524,-0.0005522528081201017,0.036517251282930374,-0.10941654443740845,0.08804347366094589,-0.006824488285928965,0.09456785768270493,0.018191447481513023,-0.052920032292604446,0.10110826790332794,0.005044516641646624,0.16295646131038666,-0.12125523388385773,0.05828522890806198,0.11266887187957764,0.10599463433027267,-0.06012701988220215,0.03979049623012543,0.10737834125757217,-0.14032450318336487,-0.015311678871512413,0.03301311284303665,-0.0014419626677408814,0.06632707267999649,-0.04756123200058937,0.12251771986484528,0.0032682071905583143,0.08071985095739365,-0.0019315555691719055,0.04418276995420456,0.026900023221969604,-0.04035057872533798,-0.06365063041448593,0.030718443915247917,-0.02710900828242302,-0.018010320141911507,0.02760552614927292,0.04960870370268822,0.10433755069971085,0.08092720061540604,-0.10120347142219543,-0.0007766701746731997,-0.030302120372653008,0.009083318524062634,-0.0867910087108612,-0.0123077891767025,-0.06877697259187698,0.07355928421020508,0.050083957612514496,0.11698092520236969,0.0821136012673378,0.14798977971076965,-0.12737247347831726,-0.014951292425394058,-0.03912676125764847,-0.046338025480508804,-0.05285792052745819,-0.049239739775657654,-0.05730177089571953,-0.033744752407073975,-0.11700595915317535,-0.07716073840856552,-0.00759907066822052,0.06418298929929733,0.00681124534457922,0.07659575343132019,-0.05361432582139969,-0.16567684710025787,-0.04378127679228783,0.012072245590388775,0.05040277540683746,0.013427666388452053,-0.024151260033249855,-0.07712224125862122,0.050293274223804474,0.08383721113204956,-0.09729762375354767,-0.07623954862356186,0.08716505765914917,0.06265851110219955,0.014850559644401073,0.01696017012000084,0.032224223017692566,-0.051836393773555756,-0.12968242168426514,-0.03256099671125412,0.1024017184972763,0.08577434718608856,-0.019869264215230942,-0.00023118991521187127,0.02679513953626156,-0.17125537991523743,0.1751347780227661,-0.018642200157046318,0.10144297778606415,0.1090557873249054,-0.008466500788927078,0.05243418738245964,0.02226947247982025,0.05464457347989082,-0.04535022750496864,-0.08389226347208023,-0.05664025992155075,-0.06386186182498932,0.01333467848598957,-0.15599004924297333,-0.07168355584144592,-0.15179838240146637,0.054553281515836716,-0.04293905943632126,0.00760964909568429,0.015164259821176529,0.030918775126338005,-0.08680309355258942,0.024525588378310204,0.0963481143116951,0.05234420672059059,0.0293536689132452,-0.014261335134506226,-0.024753468111157417,-0.021933190524578094,0.04119984433054924,-0.01451906282454729,-0.25281932950019836,0.14940407872200012,0.03079775907099247,0.03229590132832527,0.0796254426240921,-0.05870349332690239,-0.012160657905042171,-0.01582314260303974,-0.17068061232566833,-0.11107256263494492,0.00405150605365634,-0.08729276061058044,0.0069975280202925205,-0.03684642165899277,-0.11729361116886139,0.003503799671307206,0.1400052011013031,-0.04444550350308418,-0.04589105769991875,0.04681205004453659,-0.0709780678153038,0.03126514330506325,0.0061379289254546165,0.02463468164205551,-0.13996271789073944,-0.0647955909371376,-0.028915541246533394,-0.026772329583764076,-0.060929812490940094,0.013452918268740177,0.0856982097029686,0.0876813754439354,-0.15743213891983032,-0.09703446179628372,0.011899552308022976,-0.056259118020534515,0.020839324221014977,-0.016838563606142998,0.0040291678160429,-0.011939055286347866,0.20549221336841583,-0.04021608084440231,-0.04578864946961403,-0.10825617611408234,-0.047552675008773804,-0.014832518063485622,0.03673309087753296,0.05482114106416702,-0.05182455852627754,-0.08356361091136932,-0.0760909840464592,-0.008722991682589054,-0.0755002573132515,0.05462292209267616,-0.10592415928840637,-0.004530470818281174,-0.17950014770030975,0.12908726930618286,-0.0017324849031865597,-0.010160310193896294,0.012756863608956337,-0.06209469586610794,0.04137951508164406,0.05303766950964928,0.18412746489048004,-0.03821153566241264,0.06968195736408234,0.0761868953704834,0.005469989962875843,0.01167998369783163,0.09332235902547836,0.004239443223923445,0.07432909309864044,0.09924778342247009,-0.001340943155810237,0.028131194412708282,0.060693882405757904,-0.031866636127233505,-0.057348717004060745,-0.04799628257751465,0.008356082253158092,-0.06711214035749435,0.02235542982816696,-0.02381828986108303,0.05205295979976654,-0.006180235650390387,-0.02863922342658043,-0.010365244932472706,-0.0736752599477768,0.09164449572563171,-0.05065295845270157,0.02763931266963482,0.026965798810124397,0.005243827123194933,0.06723757833242416,0.00047173292841762304,0.008402877487242222,-0.055958330631256104,-0.002107958309352398,-0.04933196306228638,-0.05120896175503731,-0.015029489062726498,-0.02799069881439209,0.048066556453704834,-0.10175691545009613,-0.09337030351161957,-0.002788149518892169,0.07255880534648895,0.02775522507727146,-0.07023397088050842,-0.026654470711946487,-0.006881398614495993,-0.1824779510498047,0.06626850366592407,-0.011383597739040852,0.05448773503303528,0.07915927469730377,0.0812106654047966,0.088919997215271,-0.04867057502269745,0.15740986168384552,-0.16964091360569,0.019949883222579956,-0.03237553685903549,0.04529396817088127,0.004509054124355316,0.05659829452633858,0.00728073762729764,0.049287546426057816,-0.0959978923201561,-0.03658733144402504,-0.08939657360315323,-0.012452802620828152,0.09045948088169098,-0.07821954041719437,-0.07032766193151474,-0.1632968932390213,0.15645059943199158,0.07180831581354141,0.08889321982860565,0.008289018645882607,0.043200451880693436,-0.042775992304086685,0.014851583167910576,-0.11508774757385254,0.06827837228775024,0.08068280667066574,-0.0681823343038559,-0.035356488078832626,-0.05511761084198952,0.03798718377947807,0.030109640210866928,-0.12202071398496628,-0.08314212411642075,0.03819150850176811,-0.06416159868240356,0.04050864651799202,0.08445391058921814,-0.025457637384533882,0.01915283314883709,0.17467299103736877,-0.042832788079977036,0.02356398105621338,0.05417574197053909,0.0548221655189991,-0.008257389068603516,-0.057680096477270126,-0.06228521466255188,-0.15448984503746033,-0.11110416799783707,0.06301572173833847,0.018590522930026054,-0.058412447571754456,0.007582582533359528,0.041124168783426285,-0.009484391659498215,0.04945330694317818,0.034938447177410126,0.021952254697680473,0.004231865983456373,-0.03064146637916565,-0.06573502719402313,0.06308410316705704,-0.009665082208812237,0.16957952082157135,0.006461624521762133,0.05191914737224579,-0.10068914294242859,-0.11529309302568436,-0.023318279534578323,-0.08062118291854858,-0.03764638304710388,-0.18647529184818268,-0.03555111587047577,0.02851436473429203,-0.030596056953072548,-0.006865605246275663,-0.06321952491998672,-0.07709572464227676,0.0708257406949997,0.0853874683380127,0.03580513224005699,0.019786322489380836,0.07137541472911835,0.02168518677353859,0.045927874743938446,-0.013580581173300743,-0.013628114946186543,0.0027819054666906595,-0.09178610146045685,0.03676088526844978,-0.044517721980810165,-0.05494529753923416,0.011053690686821938,-0.12280064821243286,-0.02658027969300747,-0.23691882193088531,-0.06459056586027145,0.0071626766584813595,-0.04677168279886246,-0.0033432431519031525,-0.005562472157180309,0.10448964685201645,-0.01811901293694973],"bias":[0.0019335729302838445,-0.049042314291000366,0.047296807169914246,-0.012493539601564407,0.0385604165494442,-0.014842362143099308,-0.04720042645931244,0.019164498895406723,-0.010325577110052109,-0.02462969347834587,-0.03634923696517944,0.035464558750391006,-0.06693296879529953,-0.019860489293932915,-0.015574724413454533,-0.02032634988427162,-0.05250663310289383,-0.010209503583610058,-0.019038815051317215,0.03206174448132515,-0.022169990465044975,-0.010877146385610104,-0.04009684547781944,-0.03758373111486435,-0.04093879088759422,0.007637602277100086,-0.038217075169086456,0.0065633258782327175,-0.04684729501605034,-0.023344825953245163,0.016543583944439888,-0.05667094141244888,-0.008613547310233116,0.0017063973937183619,0.024281669408082962,0.010409163311123848,-0.024614747613668442,-0.02639307640492916,-0.0421532467007637,-0.03670768439769745,0.0031690446194261312,0.04989686980843544,-0.04120708256959915,0.0052206735126674175,-0.029629936441779137,0.010790474712848663,-0.04260232299566269,-0.033969148993492126,0.047015417367219925,-0.027497416362166405,0.012053919956088066,-0.019660089164972305,0.01628471538424492,0.009537999518215656,0.010438177734613419,-0.04100032150745392,0.01759682409465313,-0.017236175015568733,-0.021509185433387756,0.0101625369861722,-0.04767658933997154,0.009583261795341969,-0.022130688652396202,-0.032363008707761765]},{"in":64,"out":64,"weight":[0.3310241997241974,0.012082807719707489,0.13050013780593872,0.2143203765153885,0.09189756959676743,-0.20036408305168152,-0.03288009390234947,-0.41676536202430725,-0.044979579746723175,-0.01605391874909401,0.20506370067596436,-0.303553968667984,-0.21479153633117676,0.049197033047676086,0.17514893412590027,0.22871628403663635,0.03242093324661255,-0.09916572272777557,-0.2643696367740631,-0.11784861981868744,0.17344720661640167,0.2593088150024414,-0.02646363526582718,-0.1328190714120865,0.1945921927690506,-0.21993564069271088,0.24310123920440674,-0.07909588515758514,0.2728809416294098,0.15094557404518127,-0.28946685791015625,-0.11887434124946594,0.3422153890132904,-0.04273812100291252,0.25443217158317566,0.2595941126346588,0.14353397488594055,0.2265927642583847,-0.291775643825531,-0.13493889570236206,0.2509455978870392,-0.3617907464504242,0.2675256133079529,0.3587513864040375,-0.29958677291870117,-0.03421255946159363,0.03058742545545101,-0.1531876027584076,-0.1384340226650238,0.20450465381145477,0.1708023101091385,-0.3212478756904602,0.25165703892707825,0.2659436762332916,-0.1323811262845993,0.10757207870483398,-0.25345379114151,-0.23610436916351318,0.1094423457980156,-0.15142181515693665,0.19975493848323822,-0.2596893310546875,-0.23767969012260437,0.10350946336984634,0.2842952013015747,-0.16166149079799652,0.11207053065299988,-0.07907730340957642,-0.06459134072065353,0.05843038484454155,-0.09578099101781845,-0.20320084691047668,-0.2795344889163971,-0.24289534986019135,-0.15759184956550598,0.15179947018623352,-0.2631584107875824,0.35042381286621094,0.045668940991163254,0.0033053471706807613,-0.07536056637763977,-0.20406381785869598,0.1271350383758545,0.08138708025217056,0.074294313788414,0.2762601375579834,-0.18498867750167847,-0.05474650859832764,0.262383371591568,-0.15146012604236603,-0.1290854960680008,-0.36649441719055176,0.008278676308691502,0.28044357895851135,-0.2596643567085266,0.08802865445613861,0.3418523371219635,0.22276946902275085,0.07194934040307999,-0.25355613231658936,0.3434778153896332,-0.034501586109399796,-0.26353025436401367,0.0033268032129853964,-0.023701172322034836,-0.03988068550825119,0.2318674772977829,0.38881176710128784,0.29360339045524597,-0.14127342402935028,0.17560794949531555,-0.10207813233137131,-0.02536763995885849,-0.2533879280090332,-0.07025836408138275,0.003710717661306262,-0.17705680429935455,-0.186471089720726,-0.11970724910497665,0.2452918291091919,-0.14998677372932434,0.26116684079170227,0.25765904784202576,-0.31849613785743713,0.20668531954288483,0.23549075424671173,0.014819115400314331,0.2728467583656311,-0.02733682282269001,0.219314843416214,-0.2513335049152374,-0.19657805562019348,-0.18267911672592163,0.307943731546402,0.26303550601005554,0.1725768744945526,-0.253737211227417,0.34233927726745605,-0.12652920186519623,0.24870634078979492,0.2927328050136566,0.09835243970155716,-0.024196142330765724,-0.22661632299423218,0.34624025225639343,0.10858508944511414,-0.1393258422613144,-0.13263185322284698,-0.09400257468223572,0.2825063467025757,0.40355145931243896,0.4607551693916321,-0.2122015655040741,0.25215551257133484,0.04517161473631859,-0.272085040807724,0.24128712713718414,-0.09401752799749374,0.08224853873252869,0.26052239537239075,0.03831227496266365,-0.5137555003166199,-0.10691916197538376,0.036399953067302704,-0.18090173602104187,-0.35661980509757996,0.1682678461074829,0.2479981780052185,-0.17449356615543365,-0.3320785164833069,-0.028156552463769913,0.1646483689546585,0.16480711102485657,-0.16684694588184357,-0.0017095670336857438,-0.029445189982652664,-0.14326973259449005,0.15341471135616302,0.30155426263809204,0.1041521430015564,-0.3991938829421997,0.3314228653907776,-0.13508889079093933,-0.13930171728134155,-0.12046308815479279,0.09579434245824814,0.30743277072906494,-0.32064858078956604,0.029443295672535896,0.1357044279575348,-0.40148046612739563,0.0916823148727417,0.2525895833969116,0.28694388270378113,0.17496845126152039,-0.16429783403873444,-0.05853252857923508,0.07846444100141525,0.17838232219219208,0.0806657075881958,0.1946496069431305,0.3055683374404907,-0.20911724865436554,-0.22745932638645172,0.15387384593486786,-0.16294673085212708,0.021049004048109055,-0.31006067991256714,0.2660268247127533,0.3039066791534424,0.10740086436271667,-0.32080844044685364,0.06311749666929245,0.002659422345459461,0.1801949441432953,0.2179633229970932,-0.08450436592102051,0.25908899307250977,0.2817748785018921,-0.24542799592018127,0.304358571767807,0.24124325811862946,0.2986273467540741,0.18602119386196136,0.022138310596346855,-0.0774024948477745,-0.05506587401032448,0.04124073311686516,0.049727074801921844,-0.05000592768192291,-0.16999711096286774,0.149245947599411,-0.17944888770580292,-0.1154155284166336,-0.17770229279994965,0.03426981717348099,0.2733721435070038,-0.21951864659786224,0.21636979281902313,-0.0022695797961205244,-0.20073458552360535,0.2201778143644333,-0.06654154509305954,0.316604882478714,0.04766935110092163,-0.11231575906276703,0.17073814570903778,0.03845800831913948,-0.06186087802052498,-0.18359559774398804,0.15714740753173828,-0.07808908820152283,0.28043675422668457,0.2544619143009186,-0.3068501651287079,-0.05613180249929428,-0.11633765697479248,-0.18030020594596863,-0.23303498327732086,0.323313444852829,0.24461880326271057,-0.14442889392375946,-0.07470482587814331,-0.2604961693286896,0.08544965833425522,-0.2548712193965912,0.38179391622543335,0.1561615914106369,0.05694244056940079,-0.10539176315069199,0.20156516134738922,-0.16816987097263336,-0.1799222230911255,0.04868672788143158,-0.08347330242395401,-0.1636105179786682,0.28914907574653625,-0.060362596064805984,-0.25234299898147583,-0.21353785693645477,-0.14917124807834625,0.012658738531172276,-0.2231045365333557,-0.1710052192211151,-0.09357104450464249,0.2314472794532776,-0.32517868280410767,-0.30276089906692505,-0.12788428366184235,-0.22337979078292847,0.2449883371591568,0.29446861147880554,0.4204876720905304,-0.08785650134086609,0.0795169398188591,0.02616981416940689,0.027690302580595016,0.08189970254898071,0.06320024281740189,-0.06267886608839035,0.04141256958246231,0.28609395027160645,-0.09283005446195602,0.020447246730327606,0.08341721445322037,-0.3168955147266388,-0.06528478860855103,-0.19145262241363525,0.05380908027291298,0.1643330305814743,-0.0777367502450943,-0.26222315430641174,0.30520620942115784,-0.1938553750514984,-0.06538249552249908,-0.24534112215042114,-0.2745536267757416,0.13680167496204376,-0.16511847078800201,0.23638519644737244,-0.17266125977039337,0.06050240248441696,-0.20380382239818573,-0.22831080853939056,0.23300811648368835,-0.2599342167377472,-0.3983295261859894,0.38949206471443176,0.019303586333990097,0.24462339282035828,-0.13145305216312408,0.3251335918903351,-0.11184851080179214,0.16136591136455536,-0.276226282119751,0.025242339819669724,0.18849802017211914,0.19985555112361908,-0.21992027759552002,0.19109699130058289,0.03759993985295296,0.04388756304979324,0.1864394247531891,-0.0998476967215538,-0.08051609992980957,-0.17740827798843384,-0.22592958807945251,-0.059039611369371414,-0.0913921520113945,-0.16171585023403168,0.28541019558906555,-0.05005867779254913,-0.03245362266898155,0.09903747588396072,0.14518730342388153,-0.03060881420969963,-0.38339555263519287,-0.06009063869714737,-0.1645956188440323,-0.08524958044290543,-0.13670961558818817,0.07741490006446838,-0.2863485813140869,-0.37809935212135315,0.2614552676677704,0.2557736039161682,0.05652657896280289,0.10675564408302307,0.14216600358486176,0.16162876784801483,-0.23464536666870117,-0.046372588723897934,-0.0979890525341034,-0.26089292764663696,-0.12584246695041656,0.09695936739444733,0.10445304960012436,-0.3177334666252136,0.09103292971849442,0.10066447407007217,-0.17590928077697754,0.1711147427558899,-0.2147883027791977,-0.24184782803058624,-0.08779573440551758,0.0438184030354023,-0.17732132971286774,0.2614086866378784,0.21445810794830322,-0.08140725642442703,0.07980896532535553,0.1610473394393921,0.16235174238681793,0.21524158120155334,-0.2134781926870346,0.25500455498695374,-0.19701871275901794,0.09296171367168427,0.13837574422359467,0.2810986340045929,0.08915726095438004,-0.1083594486117363,-0.09001269191503525,-0.08160419017076492,0.20516160130500793,0.25631096959114075,-0.288629412651062,-0.1048193871974945,-0.15913061797618866,-0.10307763516902924,-0.20296181738376617,0.2373829036951065,0.2576117515563965,0.07254564017057419,0.1954711377620697,0.0839807465672493,0.11071301996707916,-0.10226917266845703,0.0533565953373909,0.050294943153858185,0.28130677342414856,-0.219589501619339,-0.14338870346546173,0.13264361023902893,-0.13017815351486206,0.18411901593208313,-0.16832442581653595,0.10663766413927078,0.23223474621772766,0.1932220607995987,-0.06741007417440414,0.059328362345695496,0.1879940629005432,-0.28270822763442993,-0.09880208224058151,-0.1543547660112381,-0.22258307039737701,0.03445042669773102,-0.159075528383255,0.09647025167942047,-0.07953006029129028,-0.07728420197963715,-0.12862110137939453,0.02475261315703392,-0.0652003362774849,0.09339006245136261,0.13956747949123383,-0.2392621785402298,0.0679418295621872,-0.22043517231941223,-0.08593890070915222,0.07122412323951721,0.16359736025333405,-0.03721906244754791,-0.3604520261287689,0.11925492435693741,-0.20598025619983673,0.08832921832799911,-0.2851479947566986,-0.1778648942708969,-0.04566517472267151,-0.22369912266731262,0.12225380539894104,-0.3394072651863098,-0.25920817255973816,0.11408001184463501,-0.15895390510559082,0.21650098264217377,-0.038872234523296356,0.12606993317604065,0.021900510415434837,-0.32767772674560547,0.024509750306606293,0.19733361899852753,0.26532092690467834,-0.17559346556663513,-0.2816353142261505,-0.17832115292549133,0.1283453106880188,0.15657296776771545,-0.19378241896629333,-0.006024141330271959,0.06723970919847488,-0.042749181389808655,-0.023040566593408585,0.003315502079203725,0.053470391780138016,0.12065840512514114,0.05135490745306015,0.03325333818793297,-0.2726333737373352,-0.1064382940530777,0.17185987532138824,0.03940580412745476,0.08485463261604309,-0.11402353644371033,0.14600884914398193,-0.24908998608589172,0.005339180119335651,0.16512638330459595,-0.025700796395540237,-0.27651503682136536,0.027539769187569618,-0.1652303785085678,0.27572500705718994,-0.293316125869751,0.0022059634793549776,-0.1592126041650772,-0.111390620470047,0.21313858032226562,-0.22522833943367004,-0.14072276651859283,-0.29974210262298584,-0.049987513571977615,-0.3359191417694092,-0.2721865177154541,0.1361655741930008,-0.24062062799930573,-0.14982463419437408,-0.0741223469376564,0.26449379324913025,-0.1989619880914688,-0.046650201082229614,-0.2195955067873001,0.27766719460487366,0.04846759885549545,0.2383156418800354,0.007540463004261255,-0.1583150029182434,-0.04299858585000038,-0.13415947556495667,0.2700197994709015,0.22884154319763184,0.1502559930086136,0.25280603766441345,-0.11448010802268982,-0.1908445805311203,0.27672845125198364,0.08308383822441101,0.14748334884643555,0.19338729977607727,0.048705242574214935,0.21608702838420868,0.3209805488586426,-0.07315947860479355,-0.28009113669395447,-0.3097323179244995,0.12204509228467941,0.06632844358682632,-0.29082822799682617,-0.22225455939769745,0.2797582149505615,0.19146735966205597,0.12698188424110413,0.10723738372325897,0.24813112616539001,-0.07891526073217392,0.0650036484003067,0.08780037611722946,0.3277723491191864,-0.29160261154174805,0.18074434995651245,0.29243192076683044,0.037920400500297546,0.12101531028747559,0.12605245411396027,0.017271028831601143,-0.21993781626224518,-0.1463688313961029,0.2674795091152191,-0.1482633650302887,-0.026045529171824455,0.2637726068496704,0.21683479845523834,0.11259868741035461,0.19755001366138458,-0.17921137809753418,0.17702586948871613,0.14227713644504547,0.14038364589214325,-0.16753460466861725,0.04889018088579178,0.03844132646918297,-0.2103419154882431,-0.26989027857780457,0.21592412889003754,-0.322583943605423,0.13441622257232666,-0.1352192461490631,-0.018399642780423164,0.30473458766937256,-0.1219911202788353,0.00432614516466856,-0.13626475632190704,0.30685651302337646,-0.22474105656147003,0.09785863757133484,0.2938886880874634,0.2613416910171509,0.15539652109146118,0.11552507430315018,-0.2288939356803894,0.17591357231140137,0.09877815842628479,-0.0842280238866806,0.06288772076368332,0.05734796077013016,-0.08362308889627457,0.05966922268271446,0.11760932952165604,0.1795189380645752,0.22042220830917358,-0.05443252995610237,-0.09369580447673798,-0.11185683310031891,-0.05503076687455177,0.17991480231285095,-0.071981281042099,-0.16450341045856476,-0.31520453095436096,-0.22464130818843842,-0.1526126116514206,0.2414800375699997,0.10181087255477905,-0.001296027097851038,-0.31352677941322327,0.07119793444871902,0.07899760454893112,-0.2736542522907257,0.08307241648435593,0.27575796842575073,-0.056626349687576294,-0.13552887737751007,-0.06657802313566208,-0.05758348107337952,0.21884799003601074,0.13935816287994385,0.25894445180892944,-0.2606101930141449,-0.021643947809934616,-0.21749110519886017,0.2818073034286499,-0.32104992866516113,-0.026710500940680504,0.2843017280101776,-0.16173437237739563,0.10989183932542801,-0.07994376868009567,0.009680522605776787,0.1684335172176361,0.10285721719264984,-0.13220669329166412,0.3556452989578247,0.10189986228942871,0.15922313928604126,0.20164930820465088,0.1738578975200653,0.16610266268253326,0.00893449503928423,-0.06719551235437393,-0.1657872498035431,0.16340327262878418,-0.01936918869614601,0.34836339950561523,0.13336294889450073,-0.23009014129638672,0.2477492392063141,-0.103536456823349,0.2026309072971344,0.04102034494280815,-0.18565161526203156,0.08417991548776627,0.2904055118560791,-0.14705829322338104,0.17369277775287628,-0.1524932086467743,0.023419711738824844,-0.17650878429412842,0.11039754003286362,0.0400378480553627,0.21178686618804932,0.163224458694458,-0.0962708443403244,-0.12386059761047363,-0.12680377066135406,0.08126120269298553,0.22954334318637848,0.14333486557006836,0.25807857513427734,-0.12000028789043427,0.22862917184829712,-0.23190303146839142,-0.11496175080537796,0.22689591348171234,-0.007953246124088764,0.16714148223400116,0.06964748352766037,0.27987563610076904,-0.04492386430501938,-0.024388832971453667,-0.25672003626823425,-0.12740293145179749,-0.0888916477560997,-0.20479001104831696,-0.2703133225440979,0.051997583359479904,0.10823573172092438,-0.1171262189745903,0.24036218225955963,-0.1340307742357254,-0.046444833278656006,-0.03280297666788101,0.10712827742099762,-0.20701101422309875,0.15703986585140228,0.04846604913473129,0.030289635062217712,0.14746251702308655,-0.27440059185028076,-0.23355279862880707,-0.1086990162730217,-0.0522911436855793,-0.20911173522472382,-0.28298652172088623,-0.24829067289829254,-0.0875716432929039,0.09890449047088623,0.11212807148694992,0.10111700743436813,-0.1691236048936844,-0.16252803802490234,-0.2023780792951584,0.2787434756755829,0.22548843920230865,-0.0729161724448204,0.18116892874240875,-0.2932538688182831,0.06361066550016403,0.21039153635501862,-0.26205208897590637,0.0707840695977211,-0.07411425560712814,-0.06055065244436264,-0.1947517693042755,0.1377139538526535,-0.0743483155965805,0.22976672649383545,-0.30928394198417664,-0.26110389828681946,-0.032094214111566544,0.1058538556098938,0.16087275743484497,-0.18519698083400726,-0.2331051230430603,-0.012258815579116344,-0.028850799426436424,0.004284365102648735,-0.03490673378109932,-0.012576480396091938,0.1932436227798462,-0.062221601605415344,0.06574974209070206,0.0904717668890953,0.1487015336751938,-0.19224901497364044,-0.10566499829292297,0.22133393585681915,0.11781472712755203,-0.05990125611424446,-0.12178143858909607,0.04194537550210953,0.11784786731004715,-0.27728071808815,-0.17094436287879944,-0.17781738936901093,-0.40092241764068604,0.07836795598268509,0.20305457711219788,0.051823362708091736,-0.1543976068496704,-0.01741950586438179,0.012131717056035995,0.13783377408981323,0.29813361167907715,-0.2998664975166321,-0.190956711769104,0.27643924951553345,0.013525547459721565,0.022212261334061623,0.20653368532657623,0.21951256692409515,0.026342440396547318,0.10228558629751205,-0.19350965321063995,-0.10190945118665695,-0.06521134078502655,0.16809149086475372,-0.027955656871199608,-0.16211792826652527,0.2861505150794983,0.034456249326467514,0.12942419946193695,0.09636718779802322,0.13785089552402496,0.07316797226667404,0.22798587381839752,0.29014337062835693,-0.25695738196372986,-0.2668851912021637,-0.29709064960479736,-0.33586442470550537,0.19932277500629425,0.2199767827987671,0.21352803707122803,-0.11973483860492706,0.24127629399299622,-0.0973208025097847,-0.23926526308059692,-0.11258408427238464,-0.026707006618380547,0.2054770290851593,0.2633148431777954,0.0272531658411026,-0.2339939922094345,-0.3197673559188843,0.010979510843753815,-0.08039677143096924,0.04407138749957085,0.2857910096645355,-0.12123127281665802,-0.13917595148086548,0.23880399763584137,0.16487865149974823,0.06631898134946823,-0.24927520751953125,-0.1712520271539688,0.06986763328313828,-0.08495624363422394,-0.1973831206560135,-0.12882833182811737,-0.17040269076824188,-0.07760416716337204,-0.16626842319965363,0.19602079689502716,-0.04805212840437889,-0.009682501666247845,0.17949314415454865,0.18528488278388977,0.1499718725681305,-0.09292839467525482,-0.11062557250261307,0.032505281269550323,-0.2564001977443695,0.109937883913517,-0.2799384295940399,0.18655522167682648,-0.23359084129333496,0.0005688202800229192,-0.08483565598726273,0.08165491372346878,-0.20826776325702667,0.27303725481033325,-0.23681464791297913,-0.3106531500816345,0.2590372860431671,-0.16924944519996643,0.27550771832466125,0.2209651917219162,-0.06861433386802673,-0.26558583974838257,-0.3470802903175354,-0.09297952800989151,0.18597176671028137,0.18601806461811066,-0.20734380185604095,-0.21323297917842865,-0.12988103926181793,0.2912728488445282,-0.2608025074005127,-0.22548963129520416,0.16349278390407562,-0.08231286704540253,-0.07784458249807358,-0.3390350937843323,-0.0881161093711853,0.09456746280193329,0.0003095074207521975,0.1104133129119873,-0.14041708409786224,0.06239597499370575,-0.1339460164308548,-0.25541919469833374,-0.09302722662687302,0.14394481480121613,-0.3003375828266144,0.17687135934829712,0.045654866844415665,-0.013011844828724861,-0.07962193340063095,0.0997852087020874,0.21626876294612885,0.12818072736263275,-0.00040441789315082133,-0.011855823919177055,-0.07600027322769165,-0.06109307333827019,-0.22070680558681488,0.009289811365306377,0.027473798021674156,-0.002984936349093914,0.2919486463069916,0.17017236351966858,0.046076565980911255,-0.1196170449256897,0.21570654213428497,0.18689322471618652,-0.04952498525381088,-0.08589302003383636,0.17782650887966156,-0.02948940359055996,0.312276691198349,0.2311151921749115,0.1367715448141098,-0.12016881257295609,0.08460140973329544,0.07333126664161682,0.0859597697854042,0.23634783923625946,-0.28509512543678284,-0.053139232099056244,-0.20009803771972656,-0.029621945694088936,0.12691526114940643,-0.1991066336631775,0.2761802673339844,-0.21140308678150177,0.265696257352829,0.24882107973098755,-0.03407127410173416,-0.10324432700872421,-0.04977604001760483,-0.16986246407032013,-0.0585070438683033,-0.21065275371074677,-0.2028171420097351,-0.1454768180847168,0.1479523926973343,-0.2806231677532196,0.23221665620803833,-0.10411927103996277,-0.05441112443804741,0.13275499641895294,-0.2019670009613037,-0.26551035046577454,0.011526921764016151,0.2745914161205292,0.04532073065638542,-0.1778406947851181,0.2730962038040161,0.2566370666027069,0.020227979868650436,-0.35425132513046265,0.2650425136089325,0.23792296648025513,0.12469006329774857,0.26278072595596313,-0.14787104725837708,-0.3146096169948578,-0.13161928951740265,-0.11511301249265671,0.21194075047969818,-0.2758312523365021,0.20334957540035248,-0.2899167537689209,-0.10223960876464844,-0.045705728232860565,-0.19267511367797852,0.3303501009941101,-0.2656014561653137,-0.13189028203487396,-0.1289796680212021,0.03568479046225548,-0.04778759926557541,0.3687918484210968,-0.051159732043743134,0.03311389684677124,0.3025622069835663,-0.15588155388832092,-0.1976054161787033,0.05808115378022194,0.013664419762790203,0.018603350967168808,0.09781353920698166,-0.029688427224755287,-0.13423830270767212,-0.15154263377189636,0.3360503911972046,-0.02229655720293522,0.24554365873336792,0.21559171378612518,-0.05826127529144287,-0.3353670835494995,-0.1655249446630478,0.1308903694152832,-0.04340308904647827,0.22981424629688263,-0.3029756247997284,-0.24543921649456024,-0.23233650624752045,0.21116787195205688,-0.12872140109539032,0.0390285961329937,0.12259501218795776,-0.07661650329828262,-0.2728157639503479,0.16513822972774506,-0.057845842093229294,-0.09377097338438034,-0.16087229549884796,-0.32325056195259094,0.16407990455627441,-0.2054041475057602,-0.13486874103546143,0.1907753348350525,0.20765811204910278,-0.2448713332414627,-0.2880343198776245,0.14932513236999512,-0.09741993993520737,0.19114117324352264,-0.054983098059892654,0.16543461382389069,-0.180946484208107,0.21439985930919647,0.04527205973863602,-0.30887138843536377,-0.1938953548669815,0.05100283771753311,0.2693527638912201,-0.1635107845067978,-0.03480521962046623,0.322368323802948,-0.01786075346171856,0.1947023719549179,0.12409313768148422,0.02146536484360695,0.018975751474499702,0.011263221502304077,0.26456418633461,-0.16449344158172607,-0.16697287559509277,0.09156706184148788,-0.20600637793540955,-0.10694164037704468,-0.15328961610794067,0.10211506485939026,0.22380025684833527,0.1356714963912964,0.16632705926895142,-0.20054544508457184,0.13968025147914886,0.13066262006759644,-0.18304122984409332,0.26786044239997864,0.1466880589723587,0.14789703488349915,0.1572580635547638,0.28651320934295654,0.12238830327987671,-0.06079952046275139,0.12982848286628723,-0.21037164330482483,-0.18530747294425964,-0.04186807945370674,0.027821257710456848,0.17481720447540283,0.22830873727798462,-0.06415179371833801,-0.0854039341211319,0.19316786527633667,-0.07445093989372253,0.16530847549438477,-0.05711231380701065,-0.11004392057657242,0.24328894913196564,-0.28055211901664734,0.2708767354488373,0.23073315620422363,-0.17489397525787354,-0.05688771232962608,0.07786098122596741,0.050608646124601364,-0.1866491585969925,0.005512297619134188,-0.08768278360366821,-0.24508102238178253,0.2324744015932083,0.03271828591823578,-0.08783037215471268,-0.1207309141755104,-0.19909845292568207,-0.18467503786087036,-0.142545685172081,-0.05369105190038681,-0.14032113552093506,-0.06091919541358948,0.22322197258472443,0.1592673510313034,-0.11888235062360764,0.16947117447853088,0.10518058389425278,-0.14224784076213837,0.1709805279970169,0.3116745948791504,0.21661622822284698,0.24922148883342743,-0.18139643967151642,-0.002677123760804534,0.2515486776828766,0.11923904716968536,-0.1425503045320511,-0.04060940816998482,-0.00022967792756389827,0.21827611327171326,0.17854253947734833,-0.3142799437046051,-0.03979390114545822,0.2511843740940094,0.113479383289814,-0.034636273980140686,-0.00790137704461813,-0.2410935014486313,0.10846715420484543,0.02098860777914524,0.06178092956542969,-0.13584066927433014,-0.22448956966400146,-0.040701981633901596,0.1720053106546402,-0.2900732457637787,-0.011995790526270866,-0.19084690511226654,0.07350194454193115,-0.2212238609790802,0.12182029336690903,0.019451236352324486,0.035981304943561554,0.25484782457351685,0.0047704423777759075,-0.21219971776008606,-0.013997797854244709,0.002501468872651458,-0.07103978842496872,-0.1970188170671463,0.038014527410268784,0.0850059986114502,0.3038005530834198,-0.23497754335403442,-0.2345169335603714,0.11363383382558823,0.058862242847681046,-0.03821805864572525,-0.17369107902050018,0.07183635979890823,0.03508966416120529,-0.07792755216360092,0.14694185554981232,-0.16431988775730133,-0.2511988580226898,-0.23200353980064392,0.1335645318031311,-0.21904200315475464,-0.26398882269859314,-0.1315937340259552,0.24702993035316467,0.09796322882175446,0.28062015771865845,-0.2573688328266144,-0.12700578570365906,0.20726662874221802,0.35421985387802124,-0.07341767102479935,-0.24560749530792236,0.3081694543361664,0.1795085370540619,0.22536170482635498,0.05469195544719696,0.13613156974315643,-0.1813950091600418,0.14482691884040833,0.1443413943052292,-0.14720886945724487,-0.14413680136203766,0.07199088484048843,-0.009305554442107677,0.15145131945610046,0.25467774271965027,-0.053288448601961136,-0.15077000856399536,-0.018389247357845306,0.2891460955142975,0.22220708429813385,-0.0025434440467506647,0.12380886822938919,0.22450506687164307,-0.30422717332839966,-0.2452380508184433,0.22469274699687958,0.31878799200057983,0.0014506903244182467,-0.27333536744117737,0.21000909805297852,0.08934344351291656,0.014898018911480904,0.26653051376342773,-0.2290957272052765,0.012816276401281357,0.1811949908733368,-0.1171310767531395,-0.2623485326766968,-0.0035209311172366142,0.21221666038036346,0.10045033693313599,0.10251066088676453,-0.180518239736557,-0.11550652980804443,0.006663669366389513,0.2189316302537918,0.20923881232738495,0.11622317135334015,0.028465161100029945,0.2444656789302826,0.28916019201278687,0.2639540731906891,0.020592400804162025,-0.08017614483833313,-0.17380806803703308,-0.20140963792800903,-0.10072076320648193,0.1187986433506012,0.06715451925992966,-0.07315842807292938,0.10416509211063385,0.30258169770240784,-0.23540575802326202,0.002152680419385433,0.1647053062915802,0.012212038971483707,-0.24021080136299133,0.12540307641029358,0.1239696815609932,-0.1673007756471634,-0.21615882217884064,0.1889665424823761,-0.3021145164966583,0.08930555731058121,0.28230738639831543,0.11092953383922577,-0.013739808462560177,-0.1438865214586258,0.12789386510849,-0.08791688084602356,-0.18637222051620483,-0.14870794117450714,-0.11778690665960312,0.1521281898021698,0.23465490341186523,0.02642853558063507,-0.2208152860403061,0.07330335676670074,0.2005157470703125,0.15541231632232666,-0.023488761857151985,0.005537219811230898,-0.22818264365196228,0.0326942503452301,0.12425258755683899,0.08459512144327164,0.09878959506750107,0.10933919996023178,0.02255907841026783,-0.10872673988342285,-0.16724038124084473,-0.07665932923555374,0.17658226191997528,-0.2018555998802185,-0.23836901783943176,-0.07668370008468628,-0.1153988465666771,-0.24725477397441864,-0.1777120977640152,-0.117350272834301,-0.13111361861228943,0.18135704100131989,-0.07580982148647308,-0.03536612167954445,0.23325450718402863,-0.3016718924045563,0.06711342930793762,-0.1045226901769638,0.29932552576065063,0.06428027898073196,-0.13373048603534698,-0.18956054747104645,-0.18529532849788666,-0.09489883482456207,0.20730288326740265,0.2439260333776474,0.2720463275909424,-0.05777692049741745,0.06840543448925018,-0.17230357229709625,-0.09585747867822647,0.27588391304016113,-0.208896204829216,-0.30567923188209534,0.043062373995780945,0.09750571846961975,0.20376808941364288,0.11349213123321533,0.08917834609746933,0.2231220006942749,0.25331926345825195,-0.17762646079063416,-0.2794693410396576,-0.27852240204811096,0.08444895595312119,0.05697780102491379,-0.05218000337481499,0.2764177918434143,0.051832158118486404,-0.0012714371550828218,-0.04342137277126312,0.20047248899936676,0.0866486206650734,-0.19414988160133362,-0.05986221507191658,0.1800045371055603,0.10426802933216095,-0.06265591830015182,0.3355354368686676,0.24943949282169342,-0.11164005845785141,0.2697640657424927,0.23471125960350037,0.26945042610168457,-0.16959334909915924,0.17985911667346954,-0.1777103990316391,0.16511957347393036,0.013286705128848553,0.12279533594846725,0.18380092084407806,0.14986874163150787,0.1495249718427658,-0.2047383338212967,-0.18969084322452545,-0.18326888978481293,-0.06605323404073715,-0.19833853840827942,-0.06458117067813873,0.006541029084473848,-0.28503990173339844,0.2423616200685501,0.0631558746099472,0.18697209656238556,-0.24393557012081146,0.1798279583454132,-0.18134093284606934,0.053553517907857895,0.2549775540828705,0.19700723886489868,-0.3340073823928833,-0.06408379971981049,-0.17926286160945892,0.16263160109519958,-0.1675647348165512,0.18964259326457977,-0.20501740276813507,-0.047837987542152405,0.026812773197889328,-0.18328118324279785,0.023515259847044945,-0.1813395470380783,-0.15915705263614655,-0.3397125005722046,0.11901043355464935,-0.13602209091186523,-0.03290034085512161,0.11162148416042328,0.1979551762342453,0.14093191921710968,0.09562169015407562,0.2851378321647644,-0.063862144947052,0.23509611189365387,-0.1799597591161728,-0.21634584665298462,-0.022107047960162163,-0.07400928437709808,-0.20043662190437317,-0.12580467760562897,-0.1047632098197937,0.010331345722079277,0.032384250313043594,-0.03981507197022438,0.28180885314941406,0.18420018255710602,-0.11064896732568741,-0.2681720554828644,0.11809735000133514,0.1031852588057518,0.24402645230293274,0.1695096790790558,0.19244715571403503,0.05014960467815399,-0.20643597841262817,0.1704193651676178,0.05162425339221954,0.19475707411766052,-0.16069723665714264,-0.2968628704547882,0.18724001944065094,-0.09616594761610031,-0.18613380193710327,0.3397538959980011,0.10448626428842545,0.2588827610015869,0.18774737417697906,-0.21940457820892334,0.22391071915626526,0.286639928817749,-0.2221522033214569,-0.02124352566897869,0.1655813306570053,0.11474146693944931,-0.18828514218330383,-0.22009862959384918,-0.20349761843681335,0.061882004141807556,-0.2250974029302597,0.03813646361231804,-0.17123596370220184,-0.12938286364078522,0.24492931365966797,-0.264786034822464,0.0352216511964798,0.20768536627292633,-0.19547021389007568,-0.0748315081000328,-0.08178798109292984,0.264259934425354,0.12470648437738419,0.15451477468013763,-0.20581555366516113,-0.28442633152008057,0.18160401284694672,0.16267754137516022,0.21829544007778168,0.11228024959564209,0.10569627583026886,0.08535260707139969,-0.08470194786787033,-0.11534731835126877,0.27334266901016235,0.02849230356514454,0.06980112940073013,-0.1643732190132141,0.2060714066028595,-0.014142106287181377,0.017811553552746773,0.006342856213450432,0.19326472282409668,0.27782946825027466,0.22128114104270935,-0.1714482605457306,-0.07664261758327484,-0.14140921831130981,0.1641373634338379,0.14639483392238617,-0.28910091519355774,-0.22465655207633972,-0.047345440834760666,-0.03824235871434212,0.2493566870689392,0.08586438000202179,0.17678238451480865,-0.22174116969108582,0.28680264949798584,0.24812541902065277,0.16826283931732178,-0.009369216859340668,0.32377365231513977,-0.034301191568374634,-0.02618573047220707,-0.02772260643541813,0.07221493124961853,0.09066762030124664,0.3057268261909485,0.22542965412139893,0.13642820715904236,0.08305562287569046,0.07256387919187546,0.23203201591968536,-0.13012579083442688,0.19235920906066895,-0.16180096566677094,-0.1430809497833252,0.08077239990234375,-0.1712760329246521,-0.14402513206005096,0.09433630108833313,0.014353267848491669,0.22030946612358093,-0.187398761510849,-0.27469953894615173,0.028202032670378685,0.11204677820205688,0.020301075652241707,-0.21769827604293823,-0.1718595027923584,0.09571174532175064,0.0351039320230484,0.23278672993183136,-0.14440390467643738,0.20257149636745453,-0.029175816103816032,0.11282751709222794,-0.188108429312706,-0.015950899571180344,-0.10490218549966812,-0.24180476367473602,0.2071198672056198,0.09490817040205002,-0.1865214854478836,0.10457789152860641,-0.09874658286571503,-0.35537660121917725,0.11204169690608978,-0.0018765125423669815,0.17218834161758423,-0.008822303265333176,-0.2529047727584839,-0.12143433839082718,0.11007089912891388,-0.24782727658748627,0.07178546488285065,-0.20154736936092377,-0.3491312563419342,-0.04815097898244858,0.21087607741355896,-0.14629751443862915,-0.24576568603515625,-0.22751270234584808,-0.20534177124500275,0.004257252439856529,-0.24603325128555298,0.07912986725568771,-0.3054865002632141,-0.3366418182849884,-0.3111235797405243,-0.17610344290733337,0.03609827533364296,0.20763929188251495,-0.22309903800487518,0.1681119054555893,-0.2937011420726776,-0.29231977462768555,0.11573044210672379,-0.029173383489251137,-0.10857906937599182,0.032490964978933334,0.05246174335479736,0.23156613111495972,0.08509086817502975,-0.0471855103969574,-0.2655717134475708,-0.09352750331163406,-0.24038736522197723,-0.019755519926548004,-0.09942086786031723,-0.04688487946987152,-0.19333375990390778,0.11578941345214844,0.10621259361505508,-0.060769740492105484,-0.11982229351997375,0.009016327559947968,0.19262626767158508,0.15447206795215607,0.06542503833770752,0.04458117112517357,0.0615088976919651,-0.014768373221158981,-0.07197172194719315,-0.14392316341400146,0.1951182633638382,0.18542350828647614,-0.2638692259788513,-0.007749348878860474,-0.29275599122047424,0.2966029942035675,-0.03498177230358124,-0.0903361439704895,-0.16723112761974335,0.1877956986427307,-0.13739202916622162,-0.011556410230696201,0.26734939217567444,-0.09864620119333267,-0.18104611337184906,0.08349955081939697,-0.007768722716718912,-0.18764851987361908,0.03752157464623451,-0.18646638095378876,-0.21957391500473022,-0.29546186327934265,-0.06366396695375443,-0.002467517275363207,-0.11912544816732407,-0.25012096762657166,-0.09348952025175095,-0.06296037137508392,-0.0005368141573853791,-0.3045307993888855,-0.24609284102916718,0.23971448838710785,0.0058204736560583115,0.15741123259067535,0.007122378330677748,-0.2998175621032715,-0.3171069920063019,0.20331643521785736,-0.05894714593887329,-0.13883249461650848,-0.3744327425956726,0.1830340325832367,0.06013213470578194,-0.20907087624073029,0.05626979470252991,-0.1496322602033615,-0.060930218547582626,-0.2128111720085144,-0.10383200645446777,-0.05957924574613571,-0.22290800511837006,-0.21898312866687775,-0.27474579215049744,0.14925135672092438,-0.21692311763763428,0.22741550207138062,0.23679032921791077,-0.17589597404003143,0.10812434554100037,0.04387414827942848,0.010548274032771587,0.14571262896060944,0.15251047909259796,0.01980457827448845,0.30902624130249023,-0.17228683829307556,0.2477630376815796,0.1335800439119339,0.23990103602409363,-0.056348394602537155,0.24965445697307587,0.18557171523571014,-0.21873250603675842,0.3241259455680847,-0.2552275061607361,0.27691033482551575,-0.22510240972042084,0.03788808360695839,-0.23796580731868744,0.17589324712753296,-0.25284865498542786,-0.12363364547491074,-0.1066550761461258,-0.28357166051864624,-0.10131574422121048,-0.09445754438638687,-0.22192692756652832,-0.09424834698438644,-0.13442875444889069,0.2918584644794464,0.12265895307064056,-0.03199594095349312,-0.057782307267189026,0.08707256615161896,0.03836119920015335,-0.1973770558834076,-0.2623036205768585,-0.2368554323911667,0.13584619760513306,-0.019708257168531418,-0.15499109029769897,0.17365649342536926,0.24323898553848267,0.034041937440633774,0.269925057888031,-0.2031019777059555,-0.16598857939243317,0.09186279028654099,0.2721973657608032,0.09330949932336807,-0.23144415020942688,0.03352309763431549,-0.09982854872941971,-0.17464329302310944,-0.133638396859169,-0.050496023148298264,0.03182823956012726,-0.060628511011600494,0.3357399106025696,-0.19883878529071808,0.036019500344991684,0.2694557011127472,-0.0022705048322677612,-0.267475426197052,-0.011510207317769527,0.06811363250017166,-0.24018490314483643,0.1122957393527031,-0.04192275553941727,-0.1763477921485901,0.0007911931606940925,-0.1795373409986496,0.28128257393836975,-0.26425468921661377,-0.16871699690818787,0.042236942797899246,0.06819114834070206,-0.04969490319490433,-0.16953003406524658,-0.18054550886154175,0.22436870634555817,0.2778787612915039,-0.0994177982211113,0.041900891810655594,-0.3441665470600128,0.2973189055919647,-0.1771906465291977,-0.16425983607769012,-0.23340068757534027,0.031195364892482758,0.11638811230659485,-0.2158130705356598,-0.060693833976984024,0.11961449682712555,0.05621175467967987,-0.3209652006626129,0.13556674122810364,0.2282928079366684,-0.018106017261743546,0.27208784222602844,0.14854979515075684,-0.26144659519195557,-0.15094487369060516,0.20137432217597961,-0.08813021332025528,0.2431947886943817,-0.19162970781326294,0.2692209482192993,0.08872298151254654,-0.27327004075050354,-0.2770281434059143,-0.2361421287059784,0.25309789180755615,0.10685541480779648,0.09145761281251907,-0.08322036266326904,-0.30542680621147156,0.24952563643455505,-0.15234944224357605,-0.04229089990258217,-0.04553447291254997,0.21422003209590912,0.1023421362042427,-0.06453366577625275,0.2442682534456253,0.3041161894798279,0.003047583857551217,0.2530854344367981,-0.15780678391456604,-0.3061678111553192,0.2721041440963745,0.038204435259103775,-0.04133940115571022,-0.18719980120658875,-0.11481747031211853,-0.2068512737751007,0.0032688097562640905,-0.1488502323627472,0.17501838505268097,0.010698910802602768,-0.04706309363245964,-0.17236316204071045,-0.25325512886047363,-0.2437354177236557,0.20020464062690735,0.15927815437316895,0.08258069306612015,-0.19221390783786774,-0.18204689025878906,0.040259942412376404,-0.29305094480514526,0.23774310946464539,0.2236507087945938,0.15891066193580627,0.27107521891593933,-0.2862872779369354,-0.12317304313182831,0.0679570809006691,-0.10399936139583588,-0.1431194394826889,0.2376369833946228,-0.24133062362670898,0.05357084795832634,0.11731099337339401,0.15966467559337616,-0.17986205220222473,0.22100962698459625,0.3374102711677551,-0.2644853889942169,-0.1256772130727768,0.18696655333042145,0.04734227433800697,0.14009056985378265,0.08199208229780197,-0.031328413635492325,0.22575098276138306,0.07501200586557388,-0.21117717027664185,-0.12098697572946548,-0.2654363811016083,0.01135334838181734,0.03413308039307594,-0.028203321620821953,0.1313905417919159,0.17083324491977692,0.19009912014007568,-0.2875480353832245,-0.012632772326469421,0.04096795991063118,0.015089794993400574,0.16212448477745056,0.20172761380672455,-0.047866903245449066,-0.23195280134677887,0.19659100472927094,-0.20439982414245605,0.3512566387653351,-0.05880356952548027,-0.06563492864370346,0.04582177475094795,0.07156287133693695,-0.2232351154088974,0.29367437958717346,0.15147852897644043,0.22294850647449493,-0.04100644588470459,-0.06286939233541489,-0.2514147162437439,-0.20671512186527252,-0.14710159599781036,0.06504201889038086,0.3308264911174774,-0.04454510286450386,0.3166181445121765,-0.22642764449119568,-0.006979316473007202,0.016721323132514954,-0.20182384550571442,0.12097953259944916,0.06467278301715851,-0.08874418586492538,-0.12394669651985168,0.15613318979740143,-0.3364371955394745,0.14428578317165375,0.1789960116147995,-0.08255316317081451,0.126009002327919,-0.1762436330318451,-0.33120492100715637,0.09543472528457642,-0.24182401597499847,0.23072585463523865,0.17116495966911316,-0.010188856162130833,-0.07540012151002884,-0.17092056572437286,-0.037822868674993515,0.06935440003871918,-0.20117723941802979,-0.13331690430641174,0.14945660531520844,0.01716846041381359,0.29389920830726624,-0.13022224605083466,0.031144626438617706,-0.141740620136261,-0.15932586789131165,-0.316902220249176,-0.18008919060230255,0.14615082740783691,0.1604812890291214,-0.05062408372759819,0.15832765400409698,0.1115180030465126,-0.030881062150001526,-0.06894277036190033,-0.17078129947185516,-0.07850559800863266,-0.04493733495473862,0.05335111543536186,-0.07285882532596588,-0.2606965899467468,0.17158393561840057,0.2772197127342224,0.1666904091835022,0.07745831459760666,0.1509455442428589,-0.3435538709163666,0.2612273395061493,-0.31066641211509705,-0.1916019320487976,-0.1322418749332428,0.11012950539588928,0.11725509911775589,0.0940958708524704,0.09092975407838821,0.17606164515018463,-0.08373953402042389,-0.31941843032836914,0.3077888786792755,-0.3179871439933777,0.06342345476150513,-0.16325363516807556,-0.2580936849117279,-0.2678436040878296,0.22800050675868988,-0.21223677694797516,0.23592665791511536,-0.2129361629486084,-0.17206718027591705,0.25061914324760437,-0.00036162708420306444,-0.16502438485622406,-0.06567822396755219,-0.27225714921951294,0.10299052298069,-0.07988177984952927,0.15861134231090546,0.22272638976573944,-0.0567694790661335,0.23605215549468994,0.017073623836040497,-0.05251096561551094,-0.2994000017642975,-0.002847694791853428,-0.009409382939338684,-0.211868017911911,-0.045049164444208145,-0.10976564884185791,-0.17301633954048157,-0.08258175849914551,-0.051809705793857574,-0.278648316860199,-0.120237797498703,-0.17840971052646637,-0.23193594813346863,0.08349119126796722,-0.10486708581447601,0.007510037161409855,-0.09484996646642685,-0.06723373383283615,0.2262079417705536,-0.06250825524330139,0.26200002431869507,-0.272701621055603,-0.27661290764808655,0.00030130971572361887,-0.14892497658729553,-0.11235589534044266,-0.2212512493133545,0.030735008418560028,0.365366131067276,0.049289632588624954,-0.2749047875404358,0.3687945604324341,-0.15397685766220093,-0.04362645745277405,-0.21342454850673676,0.004041409585624933,-0.027791649103164673,-0.18992145359516144,-0.08801836520433426,0.13553111255168915,-0.23149320483207703,-0.026085933670401573,0.28242865204811096,-0.1915796548128128,-0.12453025579452515,-0.2669689357280731,0.16247013211250305,-0.16453249752521515,0.1575661152601242,-0.2172643542289734,0.12473878264427185,-0.1186826154589653,0.06245766580104828,-0.04449102282524109,-0.19399993121623993,0.1659485101699829,0.040184132754802704,0.2939666211605072,-0.32827746868133545,0.25126028060913086,-0.040229130536317825,-0.17431333661079407,0.2848861515522003,0.24096643924713135,-0.2049008011817932,-0.03725140541791916,0.051503296941518784,0.07776335626840591,0.2791922092437744,0.14091306924819946,0.27664849162101746,-0.07993704080581665,0.2178414911031723,-0.2041112780570984,-0.1679799109697342,0.2948729991912842,0.1540539264678955,-0.28866374492645264,-0.058510810136795044,0.10552473366260529,0.2345305234193802,-0.2582903802394867,-0.10503119975328445,-0.09090522676706314,-0.20578508079051971,-0.11025186628103256,-0.244464710354805,-0.0262198094278574,0.2745964825153351,-0.041193991899490356,0.0020191343501210213,0.10424616187810898,-0.009826487861573696,0.11847448348999023,0.1720777451992035,0.23356489837169647,0.1300486922264099,-0.08365890383720398,0.17384830117225647,0.2691810429096222,0.24716304242610931,0.006071572192013264,0.06447071582078934,-0.00527470838278532,-0.1296263188123703,-0.11474065482616425,0.2572668492794037,0.24393022060394287,-0.21724243462085724,0.2248334288597107,-0.18502521514892578,-0.2767622172832489,0.24888373911380768,-0.04084582254290581,0.18224643170833588,-0.15727777779102325,-0.28200283646583557,-0.11435308307409286,-0.1260458379983902,0.005715238396078348,-0.02713358961045742,0.2733447849750519,-0.2423127293586731,0.06801650673151016,-0.19497662782669067,-0.07068239897489548,-0.2797057032585144,-0.08883097767829895,-0.07118508964776993,0.13487069308757782,-0.018658418208360672,0.046032972633838654,0.22836537659168243,0.10611971467733383,0.11389163136482239,0.002322721527889371,-0.20104847848415375,0.1426321417093277,-0.14529187977313995,-0.13227246701717377,0.23085463047027588,-0.18066345155239105,0.27570778131484985,-0.0154258506372571,0.15572282671928406,-0.2792684733867645,-0.19561068713665009,-0.11414745450019836,-0.13267073035240173,-0.13849514722824097,0.07165159285068512,-0.19367271661758423,0.043494272977113724,0.08028721809387207,-0.10804106295108795,0.001578552182763815,0.00910288468003273,-0.26926714181900024,-0.009804729372262955,-0.19784873723983765,-0.16147004067897797,-0.2217801958322525,0.07280809432268143,-0.24160663783550262,-0.14660429954528809,0.03653701767325401,0.11659348756074905,0.17779602110385895,0.22414234280586243,-0.23784920573234558,-0.10199032723903656,0.22245794534683228,-0.2706494629383087,0.18134738504886627,-0.2907524108886719,0.22338373959064484,0.13978905975818634,0.027714045718312263,0.02079075202345848,-0.18958336114883423,0.2206636518239975,-0.12663428485393524,0.17634807527065277,-0.09822919964790344,-0.1394408792257309,-0.2125476747751236,0.33091065287590027,-0.3092084527015686,0.3152233362197876,0.12089645117521286,0.21656955778598785,-0.2172631323337555,-0.10291533172130585,-0.21629144251346588,0.18610717356204987,-0.2421034723520279,0.04122946038842201,0.009297866374254227,0.21671035885810852,-0.13334506750106812,0.2730490267276764,0.006547783501446247,0.022680044174194336,-0.2814537584781647,0.2541136145591736,0.13111881911754608,0.2291819304227829,-0.07518736273050308,-0.12332925200462341,0.25007835030555725,0.20168645679950714,-0.03267902135848999,0.33125558495521545,-0.24668115377426147,-0.11667920649051666,0.10537544637918472,-0.02193160355091095,0.15336935222148895,-0.10509783774614334,0.32450029253959656,0.143143892288208,0.03325936943292618,-0.28403520584106445,0.04122144356369972,-0.06577692180871964,-0.07264047116041183,0.12820984423160553,0.33147192001342773,0.121200792491436,-0.08740902692079544,0.17728690803050995,-0.3544272482395172,0.29849475622177124,-0.07188136130571365,-0.2124980390071869,0.033823247998952866,-0.13368628919124603,0.15223293006420135,0.2923851013183594,-0.29543161392211914,0.2801053822040558,0.09530841559171677,-0.23506270349025726,0.0037042037583887577,-0.008252880536019802,-0.021465010941028595,0.024165766313672066,-0.20896729826927185,0.15045760571956635,0.2491360604763031,-0.3621279299259186,0.3043544590473175,-0.3725941479206085,-0.12565521895885468,0.0483015701174736,-0.23618440330028534,0.1379418671131134,-0.09379252046346664,0.15464061498641968,-0.3446349501609802,0.17251604795455933,-0.23904454708099365,0.11514152586460114,0.23737822473049164,0.20556776225566864,-0.2840307354927063,0.08263987302780151,0.13224944472312927,-0.21753808856010437,-0.0072496505454182625,0.09902913123369217,0.2348998486995697,0.27131739258766174,-0.3020639717578888,-0.034739475697278976,-0.05793612822890282,0.061760321259498596,-0.12126047909259796,-0.28627845644950867,-0.20201419293880463,0.2920311689376831,-0.20047123730182648,0.271404504776001,0.242989644408226,-0.10649450123310089,-0.21509864926338196,-0.2033596634864807,-0.058085884898900986,-0.26669761538505554,0.13648734986782074,-0.0854293555021286,0.012246210128068924,-0.15906715393066406,-0.19208461046218872,-0.1743803769350052,0.24634677171707153,0.029799245297908783,0.14459553360939026,-0.2279483824968338,-0.13451990485191345,0.14940205216407776,-0.010284291580319405,-0.11760836839675903,0.24364542961120605,-0.27216044068336487,-0.16309043765068054,-0.13855846226215363,-0.31241458654403687,0.0041275545954704285,0.13839919865131378,-0.11932078748941422,0.2087031900882721,-0.11066503077745438,0.18473608791828156,0.24620239436626434,-0.235162615776062,-0.07528694719076157,0.23091036081314087,0.16206778585910797,-0.12832686305046082,0.19817288219928741,0.10293912887573242,-0.05677221715450287,0.078056700527668,-0.07529231905937195,0.028704866766929626,-0.05954674631357193,0.11638548970222473,-0.09421613812446594,-0.10493110865354538,0.022202681750059128,-0.13967712223529816,-0.1250552386045456,-0.09589231759309769,-0.2867513597011566,0.19713936746120453,-0.10466454923152924,-0.016015734523534775,0.2206772118806839,0.1288587749004364,0.3090789020061493,0.1780156046152115,-0.15520575642585754,-0.2929517924785614,0.028095629066228867,-0.04013950750231743,0.023301254957914352,0.0948951244354248,-0.20266450941562653,-0.06812519580125809,-0.09850859642028809,0.0928478091955185,0.07402410358190536,0.2545250654220581,-0.18214090168476105,-0.038775745779275894,-0.18057861924171448,0.25750282406806946,0.2691603899002075,-0.19286610186100006,0.26067915558815,0.23642103374004364,0.08856204897165298,-0.13965924084186554,0.2884865999221802,0.2560098171234131,0.3531438112258911,0.2517978847026825,0.2202785462141037,0.24090968072414398,-0.2055605798959732,-0.046135131269693375,0.28423506021499634,-0.08427079766988754,0.1246495395898819,0.2941495478153229,0.16294236481189728,-0.18398593366146088,-0.10238891839981079,-0.28557515144348145,0.21256786584854126,-0.2601676881313324,-0.18857011198997498,0.18813547492027283,-0.2743275463581085,0.3160063624382019,0.01950158178806305,-0.01954188011586666,-0.08305063843727112,-0.0986570343375206,0.24702513217926025,-0.12455028295516968,-0.26953136920928955,-0.23985788226127625,0.18721385300159454,0.19031056761741638,-0.27062225341796875,0.09792075306177139,0.24557402729988098,-0.14151443541049957,0.043128181248903275,-0.07985571026802063,-0.14733844995498657,-0.23276594281196594,0.008751132525503635,0.18695354461669922,-0.006259037181735039,0.25881269574165344,-0.23304378986358643,-0.2390134334564209,-0.21818086504936218,-0.1927192509174347,0.11776139587163925,-0.23791950941085815,0.07438380271196365,0.1914817988872528,-0.07917308807373047,0.12994851171970367,0.3277137279510498,-0.2656475603580475,-0.17521801590919495,-0.022155366837978363,0.23600196838378906,0.15737269818782806,0.16560333967208862,0.06561949104070663,0.23964838683605194,-0.062468234449625015,-0.24176064133644104,0.17854255437850952,0.123119056224823,-0.044311702251434326,0.10729210823774338,0.2060672789812088,0.25522878766059875,0.16092215478420258,0.07554768770933151,0.07999715209007263,0.2824825048446655,0.2962607145309448,0.17643429338932037,0.07866892218589783,-0.02823481336236,0.17301949858665466,0.14428095519542694,-0.15987111628055573,-0.016565142199397087,0.1957782804965973,0.31685471534729004,-0.08294002711772919,0.18617703020572662,-0.03947783634066582,0.01925896853208542,0.19320933520793915,0.1500655859708786,-0.14666292071342468,0.22935634851455688,0.22530992329120636,-0.14996924996376038,0.2984868288040161,0.17283929884433746,0.13858924806118011,0.003168499330058694,0.1492333710193634,-0.0017471951432526112,0.24123558402061462,0.3173551559448242,0.28217267990112305,0.049917906522750854,-0.1117187961935997,-0.06704945117235184,-0.04208557680249214,0.20531970262527466,0.03647373989224434,-0.28009915351867676,-0.2632969617843628,-0.06864331662654877,0.10534180700778961,0.023652756586670876,-0.31535425782203674,0.274187296628952,0.08342234045267105,-0.09584052860736847,-0.14535006880760193,0.12116717547178268,0.17302638292312622,-0.23671938478946686,-0.1854805052280426,0.07330028712749481,0.29774942994117737,-0.10121490806341171,0.07360028475522995,-0.10897903144359589,0.04061242938041687,-0.005875702481716871,0.18032902479171753,0.11741987615823746,-0.03553236648440361,-0.22322922945022583,-0.26415833830833435,-0.26608413457870483,0.026106929406523705,0.07508380711078644,0.015943003818392754,-0.023704813793301582,0.2980439066886902,0.04207632318139076,-0.029873548075556755,0.13975408673286438,-0.1451493799686432,0.01322560291737318,0.012282545678317547,-0.03768466040492058,-0.005573076196014881,-0.2467348426580429,-0.09386423975229263,-0.24407058954238892,0.06039084494113922,0.12577201426029205,-0.17432226240634918,0.015911681577563286,0.2614876627922058,0.0274464450776577,-0.05440709367394447,0.13296079635620117,-0.29378125071525574,0.02837405353784561,0.01385765615850687,0.18167148530483246,0.35410740971565247,-0.10771626979112625,0.07921181619167328,0.13076409697532654,-0.16484922170639038,-0.15391455590724945,0.17592082917690277,-0.2358155995607376,0.21814264357089996,0.28354790806770325,0.3777807056903839,0.3139588236808777,-0.02278738282620907,0.20269855856895447,0.09018836915493011,-0.2776217460632324,-0.05622897297143936,0.07552097737789154,0.0809280276298523,-0.21333430707454681,-0.15130393207073212,-0.009381100535392761,0.1476208120584488,-0.22009988129138947,-0.24665305018424988,-0.06659473478794098,0.2578795552253723,-0.05307392030954361,-0.19893822073936462,-0.21935729682445526,0.09487637877464294,-0.15820685029029846,-0.03502143919467926,0.2514202892780304,0.29708626866340637,0.03581508621573448,0.07803785800933838,0.09453918039798737,0.07638439536094666,-0.11207732558250427,0.11660265922546387,0.16443797945976257,-0.19972948729991913,-0.30630210041999817,-0.29375606775283813,-0.23242205381393433,-0.24120309948921204,-0.0028489399701356888,0.207144096493721,0.17975902557373047,0.005484451539814472,0.3153156340122223,0.24037793278694153,-0.17986753582954407,0.09375128149986267,0.1460435837507248,-0.0013647109735757113,-0.29514360427856445,-0.00675963843241334,0.11317680776119232,0.15573091804981232,0.0745457112789154,-0.3161778151988983,-0.16538766026496887,0.2560007870197296,-0.07405904680490494,0.041841596364974976,-0.3344818949699402,0.2049654871225357,0.10066981613636017,0.09098145365715027,0.22923728823661804,0.08158920705318451,-0.10858182609081268,0.29770514369010925,-0.21916469931602478,-0.21802569925785065,0.1429740935564041,-0.012263597920536995,0.10902944207191467,-0.20644645392894745,0.08428546041250229,0.30628475546836853,0.07021812349557877,0.06861866265535355,0.10122674703598022,-0.18713460862636566,0.18064948916435242,-0.3130316138267517,0.23837648332118988,-0.14753834903240204,0.005860521923750639,0.030987681820988655,0.26186928153038025,0.2196682244539261,0.20014220476150513,-0.07055875658988953,0.1350529044866562,0.20210807025432587,0.15583965182304382,0.05521184951066971,-0.04554262012243271,0.03707849979400635,0.26987674832344055,-0.1763642579317093,-0.1281532198190689,-0.05454566702246666,0.30459290742874146,0.18124563992023468,0.1964876651763916,0.0008869883022271097,-0.25821688771247864,-0.07999876886606216,-0.12609358131885529,0.24632824957370758,0.13434158265590668,-0.1675347536802292,-0.16905859112739563,0.09880895912647247,-0.255278617143631,0.25368329882621765,0.059522099792957306,-0.19039972126483917,0.18009355664253235,0.34421804547309875,-0.21396338939666748,0.008624687790870667,-0.16804809868335724,-0.3008931279182434,0.0717032179236412,0.23424619436264038,-0.1927012950181961,0.20247957110404968,-0.008899403735995293,0.09507615119218826,-0.04029178246855736,-0.43376514315605164,-0.16284051537513733,-0.12306530773639679,0.19170060753822327,-0.19962488114833832,0.24849727749824524,-0.11280446499586105,-0.2588753402233124,-0.048489734530448914,0.22415362298488617,0.18768399953842163,-0.5027605891227722,-0.11787785589694977,0.08948531001806259,0.12767605483531952,-0.05712360516190529,-0.21294037997722626,-0.06326951086521149,-0.07669412344694138,-0.19764918088912964,-0.0050560287199914455,-0.2239920198917389,-0.24874050915241241,-0.08300790935754776,0.2634490728378296,-0.14399272203445435,0.1925290822982788,0.10096608102321625,0.1889866143465042,0.11258319020271301,-0.12242771685123444,0.043358005583286285,0.038937341421842575,-0.11018918454647064,0.0632135272026062,0.282266765832901,0.002594184363260865,-0.20443864166736603,-0.1348331868648529,-0.2675844430923462,0.2329215258359909,-0.21343253552913666,0.3095083236694336,0.07284500449895859,-0.001322032418102026,0.03578394651412964,0.14989976584911346,0.19380488991737366,-0.33184027671813965,0.3917798697948456,0.027657389640808105,-0.11720452457666397,0.2034221589565277,0.14315593242645264,-0.1593744158744812,0.11792393028736115,0.21902377903461456,-0.12145935744047165,-0.1361580491065979,0.2475743293762207,0.012071594595909119,-0.27851974964141846,-0.22152827680110931,0.24305814504623413,0.271185964345932,-0.11697180569171906,-0.06407764554023743,0.13351918756961823,-0.2528610825538635,0.3369305729866028,-0.2394528090953827,-0.11047226935625076,0.020970752462744713,0.15791107714176178,-0.2275218665599823,-0.04917125031352043,0.011087510734796524,-0.01725873164832592,0.17425964772701263,0.22877764701843262,0.16112945973873138,-0.13978132605552673,0.2590777575969696,0.014446512795984745,-0.014049283228814602,0.2567611038684845,0.31499820947647095,-0.08504318445920944,-0.1564292311668396,-0.025405896827578545,0.0718872919678688,0.24482405185699463,0.22668901085853577,0.19376341998577118,-0.11714887619018555,0.13124097883701324,-0.09075034409761429,-0.10689844936132431,0.038155268877744675,0.04423545300960541,0.2288057804107666,0.230833038687706,0.07559338957071304,-0.26824823021888733,-0.0957423523068428,0.19242283701896667,-0.15253937244415283,-0.011956213042140007,0.17533424496650696,0.29509833455085754,-0.06960359215736389,0.06130501255393028,0.03691530600190163,0.18651598691940308,0.12759532034397125,0.22154027223587036,-0.15313787758350372,0.19540539383888245,-0.03674393147230148,-0.19919824600219727,0.25087040662765503,0.16378149390220642,-0.12405252456665039,0.11322776228189468,-0.2169516682624817,0.2102857232093811,-0.030502837151288986,-0.16297774016857147,0.1649981141090393,-0.1198601946234703,0.052971549332141876,-0.142558753490448,0.009277444332838058,0.18518854677677155,-0.017934704199433327,-0.03352978080511093,0.18636061251163483,0.12240370362997055,-0.04023713618516922,0.12532785534858704,0.1529381424188614,0.26892808079719543,-0.2514650523662567,0.14643137156963348,-0.018732938915491104,-0.11667457967996597,-0.11033789068460464,0.034934014081954956,0.0065035042352974415,-0.3375702500343323,0.17246854305267334,-0.07677960395812988,0.0670776292681694,0.00862034223973751,-0.3553124964237213,0.1321948915719986,-0.037521034479141235,-0.227114737033844,-0.06587087363004684,-0.10013437271118164,0.25328725576400757,0.006556438282132149,0.1866728812456131,0.3154943585395813,-0.2408033013343811,0.06762583553791046,0.19950321316719055,-0.16368068754673004,-0.33559489250183105,0.013009250164031982,-0.03223896771669388,-0.12181863933801651,0.10796529799699783,0.015362150967121124,-0.26461130380630493,0.06973465532064438,0.03391881287097931,0.2628978192806244,-0.1255979686975479,-0.07513806968927383,-0.0473991297185421,0.07256339490413666,-0.012008525431156158,-0.13424189388751984,-0.27180910110473633,0.050989292562007904,-0.054976798593997955,0.3170442283153534,0.04487837105989456,0.2390839159488678,0.14581510424613953,-0.21553078293800354,0.10836005955934525,0.14936885237693787,0.26717624068260193,0.29859790205955505,0.2927819788455963,-0.29543328285217285,0.3427084982395172,0.022531190887093544,0.09822557866573334,0.13840252161026,0.09890785813331604,0.08018182963132858,0.10334492474794388,-0.09433015435934067,-0.07770927250385284,0.1371048241853714,-0.17505410313606262,0.10017301142215729,0.017284082248806953,-0.2184208482503891,-0.03606012836098671,-0.06982598453760147,0.1447724848985672,-0.1710921972990036,0.12449544668197632,-0.09247933328151703,-0.030754828825592995,-0.20369477570056915,-0.23206599056720734,0.07738623023033142,-0.10732011497020721,-0.1995869278907776,0.06565681844949722,-0.02639859914779663,0.30415207147598267,-0.26023757457733154,-0.29382407665252686,0.12311872094869614,-0.11184858530759811,0.002075625816360116,0.3073447644710541,-0.008618390187621117,-0.28192779421806335,-0.0587477870285511,-0.2362842559814453,0.15679481625556946,-0.3062088191509247,-0.18071481585502625,-0.02836567349731922,-0.17704735696315765,0.27568453550338745,-0.18313218653202057,-0.11795660108327866,-0.28238555788993835,0.21727322041988373,0.22279192507266998,0.011047095991671085,0.07853958755731583,-0.24560950696468353,0.22252275049686432,-0.17161396145820618,-0.26205962896347046,0.018951816484332085,0.07051463425159454,0.08571213483810425,0.22520126402378082,-0.09369666129350662,0.07059615105390549,-0.05039811506867409,-0.18599726259708405,-0.024955181404948235,0.03992951661348343,0.1673920452594757,0.1334717869758606,-0.00019715614325832576,-0.2597840428352356,-0.10727305710315704,-0.2576676309108734,0.06040549650788307,-0.2551991939544678,0.029749436303973198,0.25079837441444397,0.20369167625904083,-0.2567034661769867,0.02467651106417179,-0.053328029811382294,0.07590766996145248,0.0475882850587368,-0.1608305275440216,-0.19594869017601013,-0.28998735547065735,-0.15606673061847687,-0.08549366146326065,0.05985644832253456,0.14261028170585632,-0.02304917201399803,-0.3014841675758362,-0.16012810170650482,0.1649276465177536,0.02803233079612255,-0.03752788156270981,0.09349756687879562,0.11667384952306747,-0.12985368072986603,0.08397472649812698,-0.20045340061187744,0.25978633761405945,-0.04623742774128914,0.03060874156653881,-0.22124981880187988,0.23672398924827576,-0.23053918778896332,0.1903507560491562,-0.0407387875020504,-0.14738412201404572,-0.07461842149496078,0.15374590456485748,-0.03212089464068413,0.21636879444122314,0.2751083970069885,0.037313416600227356,0.068604476749897,0.0408792719244957,0.16062219440937042,-0.27321332693099976,-0.24546878039836884,-0.09461315721273422,-0.1895109862089157,-0.19517654180526733,0.27554112672805786,-0.03419673442840576,-0.17460575699806213,-0.12398037314414978,-0.010736865922808647,-0.2656956613063812,0.11325050890445709,0.26203152537345886,-0.13179923593997955,0.004646981135010719,-0.03587816283106804,0.047773465514183044,-0.2507975697517395,-0.2989814579486847,-0.2956891357898712,0.09444011747837067,-0.24797514081001282,0.07091693580150604,-0.049835413694381714,0.17258323729038239,0.10376208275556564,0.057625994086265564,-0.13262809813022614,-0.22671997547149658,-0.2572333812713623,-0.11993400752544403,0.15735256671905518,-0.189814031124115,0.24072372913360596,-0.25774580240249634,0.27605757117271423,-0.14704042673110962,0.33565425872802734,-0.05804102495312691,-0.15068864822387695,-0.009852332063019276,-0.22747007012367249,-0.1344919502735138,0.17333632707595825,-0.034958451986312866,0.09217274188995361,-0.1348324865102768,-0.09496832638978958,-0.0006007291958667338,-0.0072213392704725266,-0.1256556361913681,0.014281884767115116,0.009619067423045635,0.09228679537773132,-0.274788498878479,-0.14685212075710297,0.20882900059223175,0.19175086915493011,-0.11068785935640335,0.05011875927448273,0.025814756751060486,-0.23744185268878937,0.06398152559995651,0.02468082122504711,-0.2317802459001541,-0.018008209764957428,-0.13173635303974152,-0.3296118974685669,0.25484761595726013,-0.06338444352149963,-0.009881912730634212,0.20186810195446014,0.14152683317661285,-0.13109555840492249,0.24640843272209167,0.027986008673906326,-0.30228161811828613,0.10313504189252853,0.13954563438892365,-0.17684713006019592,-0.038771938532590866,0.15141767263412476,0.18596810102462769,0.12724679708480835,0.16672958433628082,-0.16866721212863922,0.27804452180862427,0.28146156668663025,-0.23378662765026093,-0.0473000705242157,-0.014492250978946686,0.11084593087434769,-0.05100061371922493,0.014612937346100807,0.2305757850408554,0.20423538982868195,-0.30314818024635315,0.2921793758869171,-0.07409486174583435,-0.1186930239200592,-0.1221712976694107,-0.2606581747531891,0.3090512752532959,-0.39444470405578613,0.11610154807567596,0.07912211120128632,0.09815382957458496,-0.17081257700920105,-0.12191975116729736,-0.11523035913705826,-0.17532573640346527,0.025322536006569862,0.15216130018234253,-0.22817778587341309,-0.13418367505073547,-0.3175489008426666,0.19770915806293488,0.06986362487077713,0.07540625333786011,-0.11625096201896667,-0.15406115353107452,0.19518212974071503,0.22858160734176636,0.2925141155719757,-0.27817675471305847,0.11561861634254456,0.19399523735046387,0.10219743102788925,-0.05242673307657242,-0.08503945171833038,-0.19683264195919037,-0.3683735132217407,0.3179381489753723,0.029501579701900482,0.2815219461917877,0.2956361174583435,0.29645273089408875,-0.1394871175289154,0.26762282848358154,-0.012465552426874638,-0.04646112397313118,0.021345918998122215,-0.20347155630588531,0.26841500401496887,0.11697180569171906,0.1356479525566101,0.09539808332920074,0.20029300451278687,-0.2244776338338852,-0.1229245513677597,0.3209346532821655,0.2761794626712799,-0.17595604062080383,-0.19954541325569153,-0.28774645924568176,0.2531004250049591,0.150018110871315,0.14849641919136047,-0.1838836818933487,-0.03678407892584801,-0.2625139057636261,0.07979786396026611,-0.08109310269355774,0.0012853852240368724,-0.016356678679585457,-0.06485868990421295,-0.0847972184419632,-0.2778718173503876,-0.30074670910835266,0.014606737531721592,0.13009242713451385,0.030676331371068954,0.36447572708129883,-0.1925353854894638,-0.10091443359851837,0.2526654601097107,0.06969902664422989,0.13578802347183228,-0.0990413948893547,0.06411024183034897,-0.052782028913497925,-0.1635292023420334,-0.14113885164260864,0.2766020894050598,-0.3818698227405548,-0.20529575645923615,-0.24562130868434906,0.10964862257242203,-0.18264073133468628,0.08597595244646072,0.20230157673358917,0.1519702821969986,0.1253996044397354,-0.25983691215515137,-0.14604614675045013,-0.2286880612373352,0.016660602763295174,0.19344797730445862,0.22635585069656372,0.037726953625679016,0.02495015412569046,0.3158385157585144,-0.2660812437534332,-0.05933644250035286,0.1835467517375946,-0.30175429582595825,-0.10856667906045914,-0.0012954947305843234,-0.18480341136455536,-0.16648247838020325,0.19494912028312683,0.18385061621665955,0.3758547902107239,-0.2053816318511963,0.07197068631649017,0.13889825344085693,-0.014531867578625679,0.07754376530647278,0.14808928966522217,-0.23303845524787903,0.0031696269288659096,-0.10129595547914505,0.21564383804798126,0.17700603604316711,-0.11372195929288864,-0.057320237159729004,0.24598106741905212,0.19021375477313995,-0.15564440190792084,-0.00894194282591343,-0.04879960045218468,-0.004129278939217329,0.06503316760063171,-0.014941180124878883,0.0022265566512942314,-0.2100885510444641,0.22199220955371857,0.19105887413024902,-0.04583940654993057,0.0011466053547337651,-0.0023375898599624634,-0.06488071382045746,-0.04928356036543846,0.09911719709634781,-0.2185652107000351,0.12945853173732758,0.21342980861663818,0.02115781605243683,-0.13520416617393494,0.19051764905452728,0.28380292654037476,0.16622278094291687,0.14270012080669403,-0.06793954968452454,0.10215459764003754,0.3121970295906067,0.2344457060098648,0.06395448744297028,0.0016070265555754304,0.2921164333820343,-0.07821806520223618,-0.19980491697788239,0.013256619684398174,-0.015622089616954327,-0.2698313891887665,0.050577547401189804,-0.11651290953159332,0.27266883850097656,0.14709994196891785,-0.16032861173152924,0.1949569135904312,-0.22824162244796753,0.22292481362819672,-0.08843658864498138,-0.021756663918495178,-0.028385862708091736,0.1564820408821106,0.1528284102678299,-0.14040257036685944,0.10484868288040161,-0.1597871035337448,-0.08942370861768723,-0.2167392522096634,0.18221597373485565,0.020851025357842445,-0.08715499192476273,0.13262036442756653,-0.26345473527908325,0.22271910309791565,0.0025840892922133207,-0.20288848876953125,0.12199024111032486,-0.04515111446380615,-0.0680614784359932,0.008386454544961452,0.1281227022409439,-0.15060298144817352,-0.10851634293794632,0.28190866112709045,0.19207146763801575,-0.3507344722747803,-0.04170496389269829,-0.18164074420928955,-0.07731267064809799,0.03846542909741402,0.14537179470062256,-0.0449504628777504,-0.07964544743299484,0.3288595974445343,0.3535202145576477,-0.3008919954299927,-0.15553024411201477,-0.03296424448490143,-0.15247437357902527,0.07782232761383057,-0.13113267719745636,-0.0408010333776474,0.15897034108638763,0.022083353251218796,-0.009820565581321716,0.057775240391492844,-0.046682603657245636,0.10042638331651688,-0.1378212720155716,-0.16064667701721191,0.08148759603500366,-0.21225839853286743,-0.13612835109233856,-0.17944245040416718,0.06669042259454727,0.13369470834732056,-0.25639456510543823,-0.08617270737886429,0.03070584498345852,-0.20708543062210083,0.23524126410484314,-0.2336181402206421,-0.18590344488620758,0.05656260997056961,-0.10446473211050034,-0.19499412178993225,-0.28612151741981506,-0.04204881936311722,0.15740014612674713,-0.199257031083107,0.10516561567783356,-0.28361260890960693,-0.027955876663327217,0.16909433901309967,0.049351442605257034,0.26020878553390503,0.24842111766338348,0.25888946652412415,0.20299291610717773,0.18024006485939026,-0.2452201545238495,0.17755357921123505,0.16633635759353638,-0.007623659912496805,-0.2132645547389984,0.10825378447771072,0.010297922417521477,-0.1627444177865982,-0.18380868434906006,0.20830008387565613,0.24200817942619324,0.005516608711332083,0.27531319856643677,-0.31028836965560913,-0.2769509553909302,0.27333614230155945,0.10418793559074402,0.09995773434638977,-0.0765848457813263,-0.24392426013946533,0.24730992317199707,-0.16521450877189636,0.24064752459526062,0.18830832839012146,-0.013623397797346115,0.22453445196151733,-0.07793968170881271,-0.14235056936740875,-0.3052874207496643,-0.20113268494606018,-0.023019369691610336,-0.210954949259758,-0.12076469510793686,0.0841858834028244,-0.289063960313797,0.04787398502230644,0.13738209009170532,-0.21341262757778168,-0.1390967071056366,0.18045538663864136,-0.11927337199449539,0.2188895344734192,-0.01283061783760786,-0.11768461763858795,-0.2622688114643097,0.06679047644138336,0.1628614217042923,0.17818261682987213,0.14790494740009308,0.05648275837302208,0.2690441608428955,-0.06937400251626968,0.16607064008712769,0.2673420011997223,-0.01694347895681858,0.1408994048833847,-0.052266065031290054,0.15499716997146606,0.27471059560775757,0.15082968771457672,-0.10988231748342514,0.0792471319437027,-0.24561594426631927,-0.008232553489506245,0.091335728764534,0.05041025951504707,-0.2720833420753479,0.030987389385700226,-0.14779555797576904,-0.26721492409706116,0.16840136051177979,-0.02196718379855156,-0.2744418978691101,-0.05182182788848877,-0.2819057106971741,-0.18759603798389435,-0.25193074345588684,0.07192108780145645,-0.029332492500543594,-0.05847523361444473,0.08440510183572769,-0.1580931544303894,-0.08134075999259949,0.14666928350925446,-0.10309211164712906,-0.06840156018733978,-0.19707800447940826,-0.1850447654724121,-0.01810833066701889,0.1495000571012497,-0.20395472645759583,-0.31148582696914673,-0.10676898807287216,0.017274079844355583,0.09077700972557068,0.1307758241891861,-0.13224628567695618,-0.2010534703731537,-0.012903229333460331,0.040171388536691666,0.05470177158713341,0.015018031932413578,-0.30193886160850525,-0.204477459192276,0.20854537189006805,-0.09931164979934692,-0.09117326885461807,0.014008413068950176,-0.21628524363040924,-0.012458385899662971,0.05054517090320587,0.1247107982635498,-0.228534996509552,0.016391726210713387,0.1988152116537094,0.1784106343984604,-0.03575371578335762,-0.20026981830596924,-0.13377705216407776,0.04431974142789841,0.2249079793691635,-0.18866470456123352,0.13968725502490997,0.16789588332176208,0.05525003373622894,0.25557881593704224,-0.05782485753297806,-0.03564591333270073,-0.30529308319091797,0.28320327401161194,0.14248400926589966,0.2212962508201599,-0.23140257596969604,0.009670203551650047,0.02429279126226902,-0.28761401772499084,-0.26380857825279236,-0.10567141324281693,-0.1450604647397995,0.22402554750442505,0.2233239710330963,-0.14049743115901947,-0.19989463686943054,-0.33853140473365784,-0.023036345839500427,-0.25763633847236633,-0.24358057975769043,0.194925457239151,-0.03749063238501549,-0.19880738854408264,-0.12290921062231064,0.3123747408390045,0.21119147539138794,0.03284129500389099,0.15266059339046478,-0.007675704080611467,-0.02375788427889347,-0.08812377601861954,0.08825994282960892,-0.1240895539522171,0.27713754773139954,0.11406078189611435,0.3120168149471283,-0.32137686014175415,-0.20469190180301666,-0.14402282238006592,0.01188530120998621,0.011642701923847198,0.1581203192472458,-0.2599865198135376,-0.19406874477863312,0.11285574734210968,-0.05744931101799011,-0.2385057955980301,-0.3029667139053345,0.31248027086257935,-0.022987939417362213,0.12333301454782486,-0.28406158089637756,-0.0713270977139473,0.13424663245677948,-0.21407271921634674,0.071824811398983,-0.2871520221233368,-0.32420724630355835,0.10552744567394257,0.04161791875958443,-0.010244853794574738,-0.2176426649093628,0.23955553770065308,0.15533073246479034,0.0019178978400304914,0.15492692589759827,-0.16307157278060913,-0.19353969395160675,0.020762965083122253,-0.07312174141407013,0.20196212828159332,-0.11881187558174133,-0.07890976965427399,-0.16576410830020905,-0.18508818745613098,0.05116443708539009,0.1797061413526535,-0.17404794692993164,-0.07071937620639801,-0.1647019237279892,-0.07366526126861572,-0.04328575357794762,0.16802842915058136,0.021934999153017998,0.03886506333947182,0.1356072723865509,-0.16338497400283813,0.06591261178255081,-0.03714417293667793,0.020032653585076332,0.05263768881559372,0.17867618799209595,-0.06465736031532288,-0.25204038619995117,0.08851628750562668,-0.03719846531748772,0.02428547665476799,-0.06040772795677185,-0.2773370146751404,0.05552259460091591,0.2455599457025528,-0.3842298984527588,0.1588817536830902,0.17376720905303955,-0.36995479464530945,0.3424462676048279,-0.14758670330047607,0.07603555917739868,0.010118549689650536,0.11390221863985062,-0.08695971965789795,0.3038559556007385,-0.045690592378377914,-0.21969404816627502,-0.20264524221420288,-0.01977691799402237,-0.2612452507019043,0.1507830172777176,-0.1376972198486328,-0.05110365152359009,0.08564475178718567,0.20665210485458374,0.1886260062456131,-0.03860816732048988,-0.06951682269573212,-0.14529061317443848,-0.04364288970828056,0.13445769250392914,-0.16664531826972961,0.3612443804740906,-0.26866614818573,0.1518574208021164,-0.13026180863380432,0.451824814081192,0.030756797641515732,-0.024207627400755882,0.2253624051809311,-0.004668833687901497,-0.3793904781341553,0.20489659905433655,0.20485904812812805,-0.08108967542648315,-0.1598389446735382,0.1105470359325409,0.18531717360019684,-0.15645840764045715,-0.023211173713207245,0.1887587457895279,-0.3887931704521179,0.19130226969718933,0.3687129318714142,0.07265540212392807,0.289102166891098,-0.2847149074077606,0.08195329457521439,-0.1516333520412445,0.08689551800489426,0.260364830493927,-0.2093985229730606,-0.22017277777194977,0.22859697043895721,0.18725858628749847,-0.16923168301582336,-0.07868001610040665,-0.22326810657978058,0.10134901851415634,-0.20966117084026337,0.20865534245967865,-0.05346725136041641,0.2685796022415161,-0.07992018014192581,-0.22618567943572998,-0.07532089948654175,0.3752710223197937,0.1617347002029419,-0.009036621078848839,-0.1918354481458664,-0.01955748163163662,0.36424946784973145,0.07047425210475922,0.20120574533939362,0.19226939976215363,0.03785159811377525,-0.20253512263298035,0.2808570861816406,0.07289484143257141,0.04278634861111641,-0.1430927813053131,0.10172219574451447,-0.02924616076052189,-0.23809196054935455,0.29070398211479187,-0.03768428787589073,-0.2049323469400406,-0.25310543179512024,0.24577482044696808,0.2696336805820465,0.21906453371047974,0.28627827763557434,-0.1562737226486206,-0.2658175826072693,0.22439976036548615,-0.2119048833847046,-0.07216068357229233,-0.04127157852053642,-0.062108781188726425,-0.17799268662929535,-0.1352580338716507,0.2106170803308487,0.3128304183483124,0.08765046298503876,-0.25496941804885864,-0.05900461599230766,-0.022454608231782913,0.06139020994305611,-0.2501095235347748,0.29003459215164185,-0.12084197998046875,-0.14321349561214447,-0.2949099838733673,-0.26399609446525574,0.07702511548995972,-0.17200306057929993,-0.19453053176403046,0.09486375749111176,0.3658953309059143,0.04848317801952362,0.22490356862545013,0.005975725594907999,-0.20897240936756134,0.09496355801820755,0.20839716494083405,-0.3134474754333496,-0.0006204256205819547,0.26915886998176575,-0.04842802882194519,0.18451324105262756,0.17487047612667084,-0.14338278770446777,0.2210826575756073,0.2857022285461426,0.07420817762613297,-0.08561303466558456,-0.18403877317905426,0.09722187370061874,-0.26152780652046204,0.1339542269706726,-0.27036863565444946,0.22851252555847168,0.12778370082378387,0.26031556725502014,0.2122485339641571,-0.3473951518535614,0.23378115892410278,0.215087890625,-0.2343905121088028,0.32243430614471436,-0.16900838911533356,0.20761646330356598,0.20644117891788483,-0.2423590123653412,0.20748955011367798,-0.12722373008728027,-0.3499409556388855,0.09416810423135757,-0.09018044918775558,-0.27230048179626465,0.1289888471364975,0.04422369599342346,0.1022900715470314,-0.1158270314335823,-0.16484005749225616,0.1809634566307068,0.18588271737098694,-0.16459262371063232,0.10215646028518677,-0.014758143573999405,-0.16231508553028107,-0.07284776866436005,0.3230363428592682,0.28870347142219543,0.04408332705497742,0.25221574306488037,-0.17905715107917786,-0.124131940305233,0.3432762622833252,-0.15162239968776703,-0.07535791397094727,-0.14569687843322754,-0.23656664788722992,0.11316850036382675,-0.22534149885177612,0.2619231045246124,0.030779724940657616,-0.24109452962875366,-0.2663097381591797,-0.18139387667179108,0.22873355448246002,0.21975301206111908,0.05792490020394325,0.054198723286390305,-0.0798889771103859,-0.12777332961559296,0.23644432425498962,0.13453929126262665,-0.011393940076231956,0.15546995401382446,0.2967382073402405,-0.14544376730918884,-0.08352161198854446,-0.18595477938652039,-0.1273099184036255,-0.03838268294930458,0.2334841638803482,0.19778387248516083,-0.07957048714160919,-0.247841015458107,0.017295686528086662,0.1697879433631897,0.2704724669456482,-0.2549881935119629,0.17447392642498016,-0.2307722270488739,0.021506929770112038,-0.2550666332244873,-0.18071095645427704,-0.1625278890132904,-0.237043559551239,-0.17885185778141022,0.15466636419296265,-0.028233228251338005,0.03173296898603439,-0.21088150143623352,0.015841828659176826,0.1878374218940735,0.01565663143992424,0.1262490600347519,-0.0653766468167305,0.0947384312748909,-0.11420615762472153,0.19013307988643646,-0.1499924212694168,0.08738409727811813,-0.018947400152683258,0.041203346103429794,0.04075726494193077,0.21762192249298096,0.11764615774154663,0.1887948215007782,0.037615951150655746,0.08258550614118576,-0.16249005496501923,0.10636510699987411,0.014327323995530605,-0.08864177763462067,0.03474732115864754,0.0933481827378273,0.2813706696033478,0.15933993458747864,-0.21912063658237457,0.3979920446872711,-0.03395423665642738,0.21524754166603088,-0.166995108127594,-0.0014340620255097747,-0.009902546182274818,0.23061154782772064,-0.14890360832214355,-0.2818162441253662,-0.24804842472076416,0.22082678973674774,0.2549796402454376,0.01765030063688755,0.15954522788524628,-0.08631638437509537,-0.14528360962867737,-0.2739652097225189,0.06323327124118805,0.169540673494339,0.025495467707514763,0.2916661202907562,-0.2444852590560913,-0.35411760210990906,0.2708933353424072,-0.00733562745153904,0.012151443399488926,-0.28120481967926025,0.21304231882095337,0.3113108277320862,-0.046386078000068665,0.12975703179836273,0.1908843219280243,-0.05460607260465622,-0.24719370901584625,0.001162174390628934,0.22012047469615936,-0.14882579445838928,-0.1698296219110489,-0.25177982449531555,0.2913850247859955,0.2148808091878891,0.18329787254333496,-0.1101280078291893,0.1859990656375885,-0.13234473764896393,0.2573825418949127,-0.0006206031539477408,-0.1321505755186081,-0.2613142132759094,-0.13662944734096527,-0.2602919638156891,0.18474212288856506,0.07804187387228012,0.16480734944343567,-0.21877586841583252,-0.21446092426776886,-0.05436191335320473,0.16187140345573425,-0.1924845278263092,0.32806921005249023,0.3599853515625,0.05372115224599838,0.22028975188732147,-0.32223206758499146,0.1500953733921051,-0.18535001575946808,-0.3504998981952667,0.171517014503479,0.06630101799964905,-0.304381787776947,0.1587856560945511,0.03256845846772194,-0.06467626988887787,0.25729554891586304,0.05534033849835396,-0.3169121742248535,-0.08497799932956696,-0.15119044482707977,0.05175988748669624,-0.013143928721547127,-0.10465378314256668,-0.03680175542831421,-0.28886720538139343,-0.12789882719516754,0.13319998979568481,-0.028794581070542336,0.04522741958498955,0.012380959466099739,0.09955019503831863,-0.05083687976002693,0.30725401639938354,0.06187496706843376,-0.275573194026947,0.12079551815986633,-0.016836661845445633,-0.31589141488075256,-0.03709534555673599,-0.17482466995716095,0.15431368350982666,0.2598014175891876,0.1044728085398674,0.06305766850709915,0.24141018092632294,0.23710742592811584,0.08020403981208801,0.2715359926223755,-0.16438162326812744,-0.16250689327716827,0.05862646549940109,0.24467110633850098,0.20761974155902863,0.28843045234680176,-0.19164569675922394,-0.2977635860443115,0.1764850616455078,-0.23119093477725983,0.23369374871253967,0.11977142095565796,0.27676090598106384,0.029545439407229424,0.21816390752792358,0.16653648018836975,-0.15317128598690033,-0.21994197368621826,-0.25782403349876404,0.05402584746479988,-0.24716323614120483,-0.09050127118825912,-0.0774054303765297,0.1990749090909958,-0.2371409833431244,-0.14743071794509888,-0.26354435086250305,-0.21376855671405792,-0.16091546416282654,0.17581526935100555,-0.015337302349507809,-0.06232074648141861,0.017997736111283302,-0.17258678376674652,0.22981105744838715,-0.074338398873806,-0.18538878858089447,-0.06737643480300903,0.11969822645187378,-0.299033522605896,0.21622325479984283,-0.10727895051240921,-0.17164410650730133,-0.24243594706058502,0.2276952713727951,-0.11303029209375381,-0.059803955256938934,0.07165070623159409,0.26964136958122253,0.17670297622680664,0.2301913946866989,-0.1976737380027771,-0.030615659430623055,-0.1041688397526741,0.3091602027416229,0.32985982298851013,-0.16432608664035797,-0.2358982115983963,0.2999885380268097,-0.12785914540290833,-0.3006768524646759,0.28800714015960693,0.2169368714094162,0.08226462453603745,-0.04494445398449898,0.1892511546611786,-0.35314521193504333,0.03247504308819771,-0.031270164996385574,-0.0417448952794075,0.11573731899261475,0.14551866054534912,-0.06297032535076141,0.10770826041698456,-0.1317453533411026,-0.1958002895116806,-0.27692627906799316,-0.019389905035495758,-0.23404482007026672,0.15112866461277008,0.06386698782444,-0.14524485170841217,-0.11317908018827438,-0.2808030843734741,0.20277093350887299,0.15154990553855896,0.04014096409082413,-0.2763790786266327,0.2040342092514038,-0.12780089676380157,-0.20130203664302826,-0.016906633973121643,0.24075224995613098,-0.08300727605819702,-0.01906154304742813,0.13730214536190033,0.12323047965765,0.08732800930738449,0.07556232064962387,0.0769367590546608,0.1204281821846962,0.24239692091941833,-0.13460960984230042,0.047335848212242126,0.22980721294879913,0.23632119596004486,-0.004560168832540512,-0.22059209644794464,-0.2087092399597168,0.056594766676425934,-0.1105281263589859,0.2268628478050232,0.10789753496646881,-0.2843756675720215,0.07300376147031784,0.005907373037189245,-0.2942679822444916,-0.0036006364971399307,0.23841580748558044,0.17836084961891174,-0.22203196585178375,0.12040628492832184,-0.1380547732114792,0.08880412578582764,0.07267185300588608,0.007262212689965963,0.2955244481563568,0.2001151144504547,0.2298797219991684,0.10618522018194199,-0.09824676066637039,0.24591045081615448,-0.32601431012153625,0.12705126404762268,-0.19863872230052948,0.22852078080177307,0.028212007135152817,0.274783194065094,0.07843878865242004,-0.15527693927288055,0.008390257135033607,-0.16457343101501465,0.06361694633960724,0.11917292326688766,-0.000727927079424262,0.24050532281398773,-0.09818052500486374,0.13175322115421295,-0.2856576144695282,-0.06849347054958344,0.00022274615184869617,0.27706632018089294,0.07183407992124557,-0.2828410863876343,-0.060814958065748215,-0.1792338639497757,-0.048944588750600815,-0.218727707862854,-0.0851726159453392,-0.24043168127536774,-0.0375434085726738,-0.16749045252799988,0.09380612522363663,0.17490899562835693,0.16587983071804047,-0.22982832789421082,-0.24689644575119019,0.12543506920337677,-0.0494186133146286,0.28616467118263245,0.07894458621740341,-0.11291529983282089,-0.08621440082788467,0.29697999358177185,0.18283669650554657,-0.2581992447376251,-0.15807418525218964,0.12114227563142776,0.035240184515714645,-0.025657447054982185,-0.28724342584609985,-0.22278137505054474,-0.21109700202941895,-0.20321671664714813,0.27433863282203674,0.30831634998321533,-0.1916104555130005,-0.22389613091945648,-0.051298510283231735,0.16637134552001953,-0.2576279640197754,-0.162540465593338,0.004924795590341091,-0.20271404087543488,0.30069106817245483,0.35856714844703674,-0.0674324780702591,-0.30297425389289856,-0.040430109947919846,0.23622792959213257,-0.21603740751743317,-0.10081972926855087,0.36135441064834595,0.11877979338169098,0.06308900564908981,0.0465221144258976,-0.12182625383138657],"bias":[0.00046317180385813117,-0.0751151591539383,-0.03928028419613838,-0.04940757900476456,0.0034773023799061775,0.024960380047559738,-0.043765563517808914,0.050315871834754944,-0.06723301112651825,-0.006767611484974623,-0.03619963675737381,0.019705869257450104,-0.02287524752318859,0.09055835753679276,-0.017611674964427948,-0.04794551804661751,0.006313325371593237,0.028863102197647095,-0.006421247497200966,-0.007960306480526924,0.02604605443775654,-0.0480741523206234,0.011495787650346756,0.02853449247777462,0.042885664850473404,0.02462627738714218,0.10634836554527283,0.025684155523777008,-0.02643403597176075,0.0646204799413681,-0.05518947169184685,0.02053404599428177,-0.019474904984235764,0.012927624396979809,-0.054526686668395996,-0.04626109451055527,-0.012589804828166962,-0.062211036682128906,-0.01606185920536518,0.02437417209148407,-0.011643784120678902,0.05722757428884506,-0.01470531988888979,-0.061965372413396835,0.015169231221079826,0.006307222414761782,0.11827442795038223,-0.03028586506843567,0.056699514389038086,0.0106262918561697,0.02996729500591755,0.011077780276536942,0.042921945452690125,0.010789734311401844,0.1059170737862587,-0.012855255044996738,-0.016256870701909065,-0.012576350942254066,0.0958048477768898,0.004744005389511585,0.01940777711570263,0.049999482929706573,-0.02459484525024891,0.023896869271993637]},{"in":64,"out":64,"weight":[-0.10235897451639175,0.1374778002500534,0.3500538170337677,0.2626599073410034,0.04906928911805153,0.2476225048303604,-0.2796432673931122,0.14249715209007263,-0.09983298182487488,-0.04295589402318001,0.3360866904258728,-0.17447207868099213,-0.029618708416819572,0.0632561445236206,0.1676340252161026,0.017704760655760765,-0.1880674660205841,0.10205907374620438,-0.30030950903892517,-0.0031080273911356926,-0.06586965173482895,-0.08259501308202744,0.05718472972512245,-0.10756458342075348,-0.22025340795516968,-0.2021861970424652,0.047186821699142456,-0.255455881357193,-0.08228058367967606,-0.09319556504487991,-0.2743324339389801,-0.2997855842113495,0.146681010723114,-0.19709227979183197,0.15611399710178375,0.23643852770328522,-0.13318587839603424,0.06988480687141418,0.16703683137893677,0.006219957023859024,-0.1840142458677292,0.2634880244731903,0.14797183871269226,-0.2402932494878769,-0.00990480650216341,0.20119591057300568,-0.23813672363758087,0.21903806924819946,0.05870611220598221,-0.1982235461473465,0.124101422727108,-0.0470709353685379,0.1541697084903717,-0.04881469905376434,-0.0919119268655777,-0.011585204862058163,-0.10744750499725342,0.3271581828594208,-0.33747267723083496,-0.059051841497421265,-0.1852935552597046,-0.20052918791770935,-0.06242459639906883,0.1578037440776825,0.1694055199623108,-0.17189085483551025,-0.4014522433280945,-0.21843022108078003,0.1345745325088501,0.128247931599617,0.20810741186141968,-0.16437625885009766,-0.05551216006278992,-0.19285285472869873,-0.24305154383182526,-0.07590744644403458,-0.020116053521633148,-0.30956748127937317,-0.24230839312076569,0.028594031929969788,-0.13015615940093994,-0.044044263660907745,-0.1952049285173416,0.08579981327056885,0.19556330144405365,0.0682017058134079,-0.17692041397094727,-0.03484482318162918,0.05752180889248848,0.04449690133333206,-0.30141571164131165,-0.11262400448322296,-0.12521503865718842,-0.2089994251728058,0.012516233138740063,0.259395033121109,0.08127461373806,0.011997955851256847,-0.004753619432449341,-0.01004383247345686,0.09507111459970474,0.031957726925611496,0.12472841143608093,0.10658112913370132,0.11431287974119186,0.19085873663425446,-0.1660732924938202,-0.2254253327846527,-0.10981232672929764,0.1029210239648819,-0.21625913679599762,-0.28566521406173706,-0.22041049599647522,0.19328460097312927,0.1764010787010193,0.011044874787330627,-0.20102550089359283,0.14121389389038086,-0.10497066378593445,0.14566005766391754,-0.2641783654689789,-0.26615071296691895,-0.23303629457950592,0.06987521052360535,0.11492466181516647,0.23977455496788025,-0.12229913473129272,0.2595501244068146,0.1110711470246315,0.07663704454898834,0.3393439054489136,0.2839391827583313,0.2513178586959839,0.13568592071533203,0.009524617344141006,-0.20748676359653473,-0.1714603155851364,-0.2669724225997925,0.0075052338652312756,-0.002400247845798731,-0.06561391055583954,0.09510309249162674,-0.02831813134253025,0.1980217844247818,